{"learner":{"attributes":{"best_iteration":"8","best_score":"0.9783812264328443"},"feature_names":["Batt","Dist","Wpts","Emot","Comf","Traf"],"feature_types":["float","float","float","float","float","float"],"gradient_booster":{"model":{"gbtree_model_param":{"num_parallel_tree":"1","num_trees":"19"},"iteration_indptr":[0,1,2,3,4,5,6,7,8,9,10,11,12,13,14,15,16,17,18,19],"tree_info":[0,0,0,0,0,0,0,0,0,0,0,0,0,0,0,0,0,0,0],"trees":[{"base_weights":[-0E0,4.5014903E-1,-4.5421574E-1,3.2610962E-1,6.600082E-1,2.7729937E-1,-5.1014197E-1,4.63226E-1,6.012321E-2,6.0728544E-1,8.848258E-1,3.67341E-2,4.1925055E-1,-6.1446446E-1,-1.5945773E-1,9.2872596E-1,4.0097624E-1,1.6625534E-1,-1.5782496E-2,7.800774E-1,5.4205966E-1,8.98484E-2,4.700937E-2,-3.1030247E-1,8.0897436E-2,3.3799312E-1,7.7693415E-1,-6.533401E-1,-4.326882E-2,-2.5459146E-1,7.1744405E-2,3.5522617E-2,9.674353E-1,3.4999084E-1,7.2401595E-1,1.0683393E-1,4.9188706E-1,-7.0886485E-2,1.4741178E-1,9.310114E-2,7.300379E-1,4.6728176E-1,7.087731E-1,-4.353727E-2,-1.1247774E-2,1.2374755E-1,-2.3272686E-1,4.2896563E-1,-0E0,3.3743322E-2,8.436903E-2,-5.409513E-1,-8.549879E-1,2.1861647E-1,-1.5049969E-1,-3.038898E-1,-2.7053678E-2,5.094187E-1,-6.157299E-2,9.780054E-2,2.9024845E-2,5.037741E-2,1.7737176E-2,7.437505E-2,3.3578124E-2,6.694171E-3,3.497266E-2,2.3681743E-2,5.624758E-2,-1.1803217E-2,2.8959263E-2,1.8198265E-2,-2.754657E-2,4.8458587E-2,7.514256E-2,5.4261293E-2,2.5460262E-2,7.7627204E-2,5.877456E-2,2.450399E-2,-0E0,-0E0,-3.3743322E-2,5.05609E-2,4.3685962E-3,1.3105789E-2,-2.0146875E-2,-6.73856E-2,-4.663531E-2,-7.186953E-2,-9.07089E-2,5.920436E-2,4.891094E-3,3.0821082E-3,-3.1033713E-2,-2.5186462E-2,-5.5494804E-2,1.9823443E-3,-3.878781E-2,6.4282805E-2,2.1842983E-2,-5.590007E-4,-5.822987E-2],"categories":[],"categories_nodes":[],"categories_segments":[],"categories_sizes":[],"default_left":[0,0,0,0,0,0,0,0,0,0,0,0,0,0,0,0,0,0,0,0,0,0,0,0,0,0,0,0,0,0,0,0,0,0,0,0,0,0,0,0,0,0,0,0,0,0,0,0,0,0,0,0,0,0,0,0,0,0,0,0,0,0,0,0,0,0,0,0,0,0,0,0,0,0,0,0,0,0,0,0,0,0,0,0,0,0,0,0,0,0,0,0,0,0,0,0,0,0,0,0,0,0,0],"id":0,"left_children":[1,3,5,7,9,11,13,15,17,19,21,23,25,27,29,31,33,35,37,39,41,-1,-1,43,45,47,49,51,53,55,57,-1,59,61,63,65,67,69,71,-1,73,75,77,-1,-1,79,81,83,85,-1,-1,87,89,91,93,95,97,99,101,-1,-1,-1,-1,-1,-1,-1,-1,-1,-1,-1,-1,-1,-1,-1,-1,-1,-1,-1,-1,-1,-1,-1,-1,-1,-1,-1,-1,-1,-1,-1,-1,-1,-1,-1,-1,-1,-1,-1,-1,-1,-1,-1,-1],"loss_changes":[5.662744E2,3.599359E1,5.6539032E1,3.1929436E1,5.5760193E0,3.35014E0,4.6766052E1,1.6377441E1,2.4130135E0,4.321747E0,1.2021637E-1,6.0244375E-1,1.5360842E0,2.1887268E1,6.5079627E0,1.1530724E0,8.1729965E0,2.3631892E0,1.5873599E0,1.7442322E-1,3.5195694E0,0E0,0E0,6.1365455E-2,4.885493E-1,1.6050367E0,2.884388E-2,2.047754E1,1.8290849E0,2.3390722E0,5.0957565E0,0E0,1.640625E-1,1.1691921E1,2.7742004E-1,1.0119979E0,2.0869493E-1,2.2735577E0,7.019848E-1,0E0,1.0603714E-1,3.3252907E0,3.0931473E-1,0E0,0E0,4.6156284E-1,1.0866736E-1,1.1924286E0,3.4510595E-1,0E0,0E0,5.5949707E0,1.6839905E0,1.1744287E0,1.3419361E0,2.105422E0,6.5655726E-1,6.5047216E-1,1.9621897E0,0E0,0E0,0E0,0E0,0E0,0E0,0E0,0E0,0E0,0E0,0E0,0E0,0E0,0E0,0E0,0E0,0E0,0E0,0E0,0E0,0E0,0E0,0E0,0E0,0E0,0E0,0E0,0E0,0E0,0E0,0E0,0E0,0E0,0E0,0E0,0E0,0E0,0E0,0E0,0E0,0E0,0E0,0E0,0E0],"parents":[2147483647,0,0,1,1,2,2,3,3,4,4,5,5,6,6,7,7,8,8,9,9,10,10,11,11,12,12,13,13,14,14,15,15,16,16,17,17,18,18,19,19,20,20,23,23,24,24,25,25,26,26,27,27,28,28,29,29,30,30,32,32,33,33,34,34,35,35,36,36,37,37,38,38,40,40,41,41,42,42,45,45,46,46,47,47,48,48,51,51,52,52,53,53,54,54,55,55,56,56,57,57,58,58],"right_children":[2,4,6,8,10,12,14,16,18,20,22,24,26,28,30,32,34,36,38,40,42,-1,-1,44,46,48,50,52,54,56,58,-1,60,62,64,66,68,70,72,-1,74,76,78,-1,-1,80,82,84,86,-1,-1,88,90,92,94,96,98,100,102,-1,-1,-1,-1,-1,-1,-1,-1,-1,-1,-1,-1,-1,-1,-1,-1,-1,-1,-1,-1,-1,-1,-1,-1,-1,-1,-1,-1,-1,-1,-1,-1,-1,-1,-1,-1,-1,-1,-1,-1,-1,-1,-1,-1],"split_conditions":[4E-1,2.778E-1,5E-1,9.444E-1,5.714E-1,7.14E-2,6.2E-1,4.167E-1,8.57E-2,6.429E-1,3.556E-1,1.3E-1,7E-1,6.667E-1,8E-1,1.9E-1,7.1E-1,4.9E-1,8.2E-1,3.889E-1,6.2E-1,8.98484E-2,4.700937E-2,4.5E-1,9.5E-1,7.667E-1,3.8E-1,7.2E-1,6.875E-1,4.167E-1,4.9E-1,3.5522617E-2,3.556E-1,2.2E-1,9.8E-1,7.14E-2,4.8E-1,6.3E-1,3.111E-1,9.310114E-2,3.7E-1,2.75E-1,7.3E-1,-4.353727E-2,-1.1247774E-2,5.111E-1,2.8E-1,4E-1,8.2E-1,3.3743322E-2,8.436903E-2,7.14E-2,8.75E-1,2.1E-1,5.111E-1,9.286E-1,9.1E-1,5.222E-1,6.833E-1,9.780054E-2,2.9024845E-2,5.037741E-2,1.7737176E-2,7.437505E-2,3.3578124E-2,6.694171E-3,3.497266E-2,2.3681743E-2,5.624758E-2,-1.1803217E-2,2.8959263E-2,1.8198265E-2,-2.754657E-2,4.8458587E-2,7.514256E-2,5.4261293E-2,2.5460262E-2,7.7627204E-2,5.877456E-2,2.450399E-2,-0E0,-0E0,-3.3743322E-2,5.05609E-2,4.3685962E-3,1.3105789E-2,-2.0146875E-2,-6.73856E-2,-4.663531E-2,-7.186953E-2,-9.07089E-2,5.920436E-2,4.891094E-3,3.0821082E-3,-3.1033713E-2,-2.5186462E-2,-5.5494804E-2,1.9823443E-3,-3.878781E-2,6.4282805E-2,2.1842983E-2,-5.590007E-4,-5.822987E-2],"split_indices":[2,4,3,3,4,4,0,3,2,3,2,0,4,4,0,5,0,0,5,3,0,0,0,5,5,2,5,2,3,4,5,0,2,2,5,4,5,0,2,0,5,2,5,0,0,2,0,3,5,0,0,4,2,0,2,3,5,2,2,0,0,0,0,0,0,0,0,0,0,0,0,0,0,0,0,0,0,0,0,0,0,0,0,0,0,0,0,0,0,0,0,0,0,0,0,0,0,0,0,0,0,0,0],"split_type":[0,0,0,0,0,0,0,0,0,0,0,0,0,0,0,0,0,0,0,0,0,0,0,0,0,0,0,0,0,0,0,0,0,0,0,0,0,0,0,0,0,0,0,0,0,0,0,0,0,0,0,0,0,0,0,0,0,0,0,0,0,0,0,0,0,0,0,0,0,0,0,0,0,0,0,0,0,0,0,0,0,0,0,0,0,0,0,0,0,0,0,0,0,0,0,0,0,0,0,0,0,0,0],"sum_hessian":[2.7675452E3,1.3899996E3,1.3775457E3,8.752362E2,5.147634E2,9.755597E1,1.2799896E3,5.770332E2,2.98203E2,4.1997498E2,9.478842E1,3.6669975E1,6.0885994E1,9.85938E2,2.9405167E2,6.642108E1,5.106121E2,1.2384765E2,1.7435535E2,1.1208558E2,3.078894E2,9.063711E1,4.1513176E0,3.4594316E0,3.321054E1,5.1199585E1,9.686408E0,9.229763E2,6.2961655E1,2.0825778E2,8.57939E1,4.843204E0,6.157788E1,4.4280725E2,6.7804855E1,1.05858604E2,1.7989044E1,1.3076651E2,4.3588837E1,2.3524134E1,8.856145E1,2.1517664E2,9.271277E1,1.3837726E0,2.0756588E0,2.9751112E1,3.4594316E0,4.0129406E1,1.1070181E1,2.0756588E0,7.6107492E0,5.950222E2,3.279541E2,1.7989044E1,4.497261E1,1.7089592E2,3.7361862E1,1.9372816E1,6.642108E1,6.0194107E1,1.3837726E0,2.3316568E2,2.0964156E2,6.365354E1,4.1513176E0,9.202088E1,1.3837727E1,4.843204E0,1.314584E1,1.162369E2,1.4529613E1,4.0821293E1,2.7675452E0,8.994522E0,7.9566925E1,1.5775008E2,5.7426563E1,5.604279E1,3.6669975E1,1.4529613E1,1.52214985E1,1.3837726E0,2.0756588E0,3.321054E1,6.9188633E0,6.9188633E0,4.1513176E0,2.1102533E2,3.839969E2,9.478842E1,2.3316568E2,4.843204E0,1.314584E1,2.1448475E1,2.3524134E1,1.4322046E2,2.7675453E1,3.3902428E1,3.4594316E0,1.2453954E1,6.9188633E0,6.0885994E1,5.5350904E0],"tree_param":{"num_deleted":"0","num_feature":"6","num_nodes":"103","size_leaf_vector":"1"}},{"base_weights":[5.1198035E-10,2.1309192E-1,-2.6888064E-1,8.48292E-1,1.7918688E-1,-1.3120547E-1,-5.2703583E-1,4.811067E-1,9.372776E-1,8.723996E-2,3.2770333E-1,-2.0048817E-1,9.312145E-2,-6.5539044E-1,-3.1601432E-1,8.676727E-3,6.92799E-1,9.6001014E-2,6.857772E-2,-1.4543189E-3,3.126878E-1,3.815508E-1,5.9986774E-2,-9.272246E-2,-3.808955E-1,1.7074695E-1,-1.5920664E-1,-7.231383E-1,-4.7073624E-1,-4.0143347E-1,-2.3143677E-2,6.651639E-2,-1.8602528E-1,8.1500036E-1,-4.6833687E-2,1.9574025E-1,-4.720371E-2,5.1003957E-1,1.8814126E-1,4.9846464E-1,2.9175305E-1,2.4378271E-1,-1.8978363E-1,4.565534E-2,-2.4078888E-1,-2.850334E-1,-4.9810076E-1,3.0228946E-1,4.2620387E-2,1.2801665E-1,-2.7569667E-1,-8.769682E-1,-6.0994697E-1,-3.6592042E-1,-6.374008E-1,-2.8286904E-1,-6.021481E-1,-3.235304E-1,9.88962E-2,6.055516E-2,-3.9261363E-2,8.483979E-2,2.6711458E-2,-3.3063363E-2,4.7924902E-2,-2.6082094E-3,3.6502715E-2,8.88978E-3,-1.1001249E-2,3.8231455E-2,6.955286E-2,9.603999E-3,5.2723356E-2,6.2404703E-2,3.5643127E-2,4.7159683E-2,2.055587E-2,7.7704894E-3,5.630623E-2,-3.993322E-2,7.468883E-3,-7.792756E-3,2.3003867E-2,-6.007371E-2,-2.0916399E-2,-3.7134256E-2,2.810832E-3,-5.674367E-2,-8.7297E-3,2.5649419E-2,6.592157E-2,-9.842319E-3,2.9796481E-2,-1.984562E-5,4.708342E-2,-4.4961315E-2,-8.391708E-3,-9.1997646E-2,-6.9631405E-2,-5.590993E-2,-9.374944E-2,-4.4436466E-2,9.0429215E-3,-1.935674E-2,-6.9816016E-2,-3.6035687E-2,5.555409E-3,-1.4569861E-2,-6.648996E-2,-5.3896666E-2,9.804424E-3,2.4748856E-2,-5.0722533E-3],"categories":[],"categories_nodes":[],"categories_segments":[],"categories_sizes":[],"default_left":[0,0,0,0,0,0,0,0,0,0,0,0,0,0,0,0,0,0,0,0,0,0,0,0,0,0,0,0,0,0,0,0,0,0,0,0,0,0,0,0,0,0,0,0,0,0,0,0,0,0,0,0,0,0,0,0,0,0,0,0,0,0,0,0,0,0,0,0,0,0,0,0,0,0,0,0,0,0,0,0,0,0,0,0,0,0,0,0,0,0,0,0,0,0,0,0,0,0,0,0,0,0,0,0,0,0,0,0,0,0,0,0,0],"id":1,"left_children":[1,3,5,7,9,11,13,15,17,19,21,23,25,27,29,31,33,-1,-1,35,37,39,41,43,45,47,49,51,53,55,57,-1,59,61,63,65,67,69,71,73,75,77,79,81,83,85,87,89,91,93,95,97,99,101,103,105,107,109,111,-1,-1,-1,-1,-1,-1,-1,-1,-1,-1,-1,-1,-1,-1,-1,-1,-1,-1,-1,-1,-1,-1,-1,-1,-1,-1,-1,-1,-1,-1,-1,-1,-1,-1,-1,-1,-1,-1,-1,-1,-1,-1,-1,-1,-1,-1,-1,-1,-1,-1,-1,-1,-1,-1],"loss_changes":[3.6380865E2,7.613641E1,9.970717E1,5.405182E0,4.5909737E1,2.8495054E1,2.6230896E1,3.6960268E0,1.6042328E-1,4.1573864E1,1.8515427E1,2.7186863E1,8.508995E0,7.24057E0,9.27433E0,1.7172633E0,2.3474617E0,0E0,0E0,1.3479121E1,1.4332485E1,1.1092651E1,9.986361E0,1.7998308E1,5.737549E0,5.576564E0,3.461228E0,7.152115E0,2.658268E0,6.6652985E0,3.1427438E0,0E0,1.9379339E0,1.7559624E-1,8.4053063E-1,1.057505E1,1.0376569E1,5.1011353E0,1.1238495E1,8.04673E0,9.325497E0,6.593727E0,5.147956E0,1.03775425E1,4.703848E0,7.8535614E0,6.618477E0,2.5029726E0,6.1217237E0,1.3287493E0,2.4025888E0,7.956848E-1,3.7664337E0,3.7618551E0,1.5518684E0,4.8047733E0,2.9329948E0,2.300623E0,1.3710914E0,0E0,0E0,0E0,0E0,0E0,0E0,0E0,0E0,0E0,0E0,0E0,0E0,0E0,0E0,0E0,0E0,0E0,0E0,0E0,0E0,0E0,0E0,0E0,0E0,0E0,0E0,0E0,0E0,0E0,0E0,0E0,0E0,0E0,0E0,0E0,0E0,0E0,0E0,0E0,0E0,0E0,0E0,0E0,0E0,0E0,0E0,0E0,0E0,0E0,0E0,0E0,0E0,0E0,0E0],"parents":[2147483647,0,0,1,1,2,2,3,3,4,4,5,5,6,6,7,7,8,8,9,9,10,10,11,11,12,12,13,13,14,14,15,15,16,16,19,19,20,20,21,21,22,22,23,23,24,24,25,25,26,26,27,27,28,28,29,29,30,30,32,32,33,33,34,34,35,35,36,36,37,37,38,38,39,39,40,40,41,41,42,42,43,43,44,44,45,45,46,46,47,47,48,48,49,49,50,50,51,51,52,52,53,53,54,54,55,55,56,56,57,57,58,58],"right_children":[2,4,6,8,10,12,14,16,18,20,22,24,26,28,30,32,34,-1,-1,36,38,40,42,44,46,48,50,52,54,56,58,-1,60,62,64,66,68,70,72,74,76,78,80,82,84,86,88,90,92,94,96,98,100,102,104,106,108,110,112,-1,-1,-1,-1,-1,-1,-1,-1,-1,-1,-1,-1,-1,-1,-1,-1,-1,-1,-1,-1,-1,-1,-1,-1,-1,-1,-1,-1,-1,-1,-1,-1,-1,-1,-1,-1,-1,-1,-1,-1,-1,-1,-1,-1,-1,-1,-1,-1,-1,-1,-1,-1,-1,-1],"split_conditions":[4.875E-1,4E-1,1E0,3.8E-1,5.5E-1,4E-1,3.571E-1,2.2E-1,3.778E-1,3.889E-1,8.9E-1,6.4E-1,8.2E-1,4.5E-1,6.667E-1,2.5E-2,6.3E-1,9.6001014E-2,6.857772E-2,2E-1,8E-2,2.75E-1,8.125E-1,7.222E-1,7.143E-1,6.429E-1,3E-1,5.556E-1,6.444E-1,7E-1,5.2E-1,6.651639E-2,1.7E-1,3.375E-1,6.4E-1,6.3E-1,7.143E-1,7.4E-1,6.667E-1,8.125E-1,5E-1,2.857E-1,8.889E-1,7.5E-1,3.5E-1,5.7E-1,7E-1,8.333E-1,8E-1,8.333E-1,2.9E-1,3.6E-1,3.8E-1,3.125E-1,4.6E-1,4.7E-1,1.4E-1,6.25E-1,5.375E-1,6.055516E-2,-3.9261363E-2,8.483979E-2,2.6711458E-2,-3.3063363E-2,4.7924902E-2,-2.6082094E-3,3.6502715E-2,8.88978E-3,-1.1001249E-2,3.8231455E-2,6.955286E-2,9.603999E-3,5.2723356E-2,6.2404703E-2,3.5643127E-2,4.7159683E-2,2.055587E-2,7.7704894E-3,5.630623E-2,-3.993322E-2,7.468883E-3,-7.792756E-3,2.3003867E-2,-6.007371E-2,-2.0916399E-2,-3.7134256E-2,2.810832E-3,-5.674367E-2,-8.7297E-3,2.5649419E-2,6.592157E-2,-9.842319E-3,2.9796481E-2,-1.984562E-5,4.708342E-2,-4.4961315E-2,-8.391708E-3,-9.1997646E-2,-6.9631405E-2,-5.590993E-2,-9.374944E-2,-4.4436466E-2,9.0429215E-3,-1.935674E-2,-6.9816016E-2,-3.6035687E-2,5.555409E-3,-1.4569861E-2,-6.648996E-2,-5.3896666E-2,9.804424E-3,2.4748856E-2,-5.0722533E-3],"split_indices":[2,3,3,5,0,4,4,0,2,4,5,2,2,0,4,2,0,0,0,0,2,2,3,3,3,3,3,1,2,2,5,0,5,2,0,5,3,5,4,3,5,4,3,1,0,0,0,4,5,4,0,0,0,4,0,0,0,1,2,0,0,0,0,0,0,0,0,0,0,0,0,0,0,0,0,0,0,0,0,0,0,0,0,0,0,0,0,0,0,0,0,0,0,0,0,0,0,0,0,0,0,0,0,0,0,0,0,0,0,0,0,0,0],"split_type":[0,0,0,0,0,0,0,0,0,0,0,0,0,0,0,0,0,0,0,0,0,0,0,0,0,0,0,0,0,0,0,0,0,0,0,0,0,0,0,0,0,0,0,0,0,0,0,0,0,0,0,0,0,0,0,0,0,0,0,0,0,0,0,0,0,0,0,0,0,0,0,0,0,0,0,0,0,0,0,0,0,0,0,0,0,0,0,0,0,0,0,0,0,0,0,0,0,0,0,0,0,0,0,0,0,0,0,0,0,0,0,0,0],"sum_hessian":[6.3476016E3,3.5412866E3,2.8063152E3,1.7822774E2,3.3630588E3,1.8312245E3,9.7509076E2,3.6016766E1,1.4221098E2,2.078093E3,1.2849657E3,1.3991938E3,4.3203058E2,6.049947E2,3.7009607E2,1.1467015E1,2.4549751E1,1.2783881E2,1.4372159E1,1.4920814E3,5.860118E2,1.0694379E3,2.1552779E2,8.768966E2,5.2229724E2,3.306375E2,1.0139308E2,4.4047327E2,1.645214E2,2.862401E2,8.385595E1,2.070267E0,9.396749E0,2.0981337E1,3.5684156E0,2.803602E2,1.2117212E3,2.2553786E2,3.604739E2,4.6259824E2,6.0683966E2,1.24175804E2,9.135198E1,4.5363577E2,4.2326083E2,2.89196E2,2.3310124E2,1.6247328E2,1.6816422E2,2.9228058E1,7.216502E1,1.8385788E2,2.566154E2,1.02963135E2,6.155826E1,1.8145934E2,1.0478079E2,2.3749165E1,6.0106785E1,1.5451305E0,7.851618E0,1.9258877E1,1.7224603E0,2.5592978E0,1.009118E0,1.2171666E2,1.5864355E2,3.8248715E2,8.29234E2,1.35379E2,9.015885E1,2.844872E2,7.5986694E1,2.4371646E2,2.1888176E2,1.9516283E2,4.1167682E2,8.250371E1,4.1672096E1,5.0683876E1,4.0668106E1,2.7194324E2,1.8169255E2,3.273071E1,3.9053012E2,2.2656389E2,6.2632122E1,1.9911337E2,3.398787E1,1.455209E2,1.6952375E1,1.08723564E2,5.9440655E1,2.1999557E1,7.2285004E0,3.713998E1,3.5025043E1,1.4519815E2,3.8659725E1,2.2447533E2,3.2140064E1,8.788278E1,1.5080355E1,7.916418E0,5.3641846E1,1.4759915E2,3.3860188E1,1.3065462E1,9.1715324E1,1.5532943E1,8.216222E0,2.982864E1,3.0278145E1],"tree_param":{"num_deleted":"0","num_feature":"6","num_nodes":"113","size_leaf_vector":"1"}},{"base_weights":[-8.808918E-11,2.5421727E-1,-2.68461E-1,1.4134067E-1,3.7461922E-1,2.451469E-1,-3.1007284E-1,8.2005554E-1,1.1074957E-1,4.70397E-1,2.564296E-1,2.0297022E-1,6.626301E-1,-2.4486996E-1,-6.240791E-1,9.961158E-2,8.755549E-2,9.040085E-2,6.3880926E-1,5.7250893E-1,3.2569802E-1,7.877408E-2,3.346638E-1,3.1165898E-1,9.749482E-2,8.316541E-2,3.8173267E-1,-2.6495275E-1,2.859182E-1,-7.150363E-1,7.208266E-2,5.296616E-2,-3.7128653E-2,2.0804355E-1,3.7019163E-2,7.907021E-2,3.9114624E-1,1.8048345E-1,6.0923547E-1,2.3961407E-1,7.6126945E-1,1.3712658E-2,5.4038626E-1,2.2029166E-1,5.01743E-1,-1.8778674E-1,3.566916E-1,4.3767955E-2,5.4631966E-1,5.9508707E-2,-2.8781896E-2,-3.75292E-1,-2.2804752E-1,4.3304902E-1,-2.717801E-1,-7.820712E-1,-6.527551E-1,-2.2692627E-1,2.3757638E-1,1.3754696E-2,4.7486722E-2,1.8108841E-2,-3.4235904E-4,5.1070478E-2,-2.718353E-2,2.7726332E-2,-3.5857145E-2,8.905334E-2,5.8275055E-2,1.5001207E-2,3.907928E-2,7.8086235E-2,3.2899607E-2,6.856852E-2,-1.5933268E-3,-7.250264E-3,6.268619E-2,1.3225253E-2,4.3676432E-2,4.3615874E-2,8.702275E-2,-5.5819447E-3,-4.416638E-2,7.353396E-2,3.0253068E-2,-2.277704E-2,1.755059E-2,7.4713096E-2,3.5549566E-2,-3.3965062E-2,-6.767232E-2,-2.675027E-2,-1.4078371E-2,-4.725328E-3,4.9589794E-2,-5.7283726E-2,5.9250104E-3,-8.542081E-2,-6.287424E-2,-5.938657E-2,-7.657292E-2,-4.0761705E-2,4.1204732E-2,1.7960126E-2,7.121193E-2],"categories":[],"categories_nodes":[],"categories_segments":[],"categories_sizes":[],"default_left":[0,0,0,0,0,0,0,0,0,0,0,0,0,0,0,0,0,0,0,0,0,0,0,0,0,0,0,0,0,0,0,0,0,0,0,0,0,0,0,0,0,0,0,0,0,0,0,0,0,0,0,0,0,0,0,0,0,0,0,0,0,0,0,0,0,0,0,0,0,0,0,0,0,0,0,0,0,0,0,0,0,0,0,0,0,0,0,0,0,0,0,0,0,0,0,0,0,0,0,0,0,0,0,0,0],"id":2,"left_children":[1,3,5,7,9,11,13,15,17,19,21,23,25,27,29,31,-1,33,35,37,39,41,43,45,47,-1,49,51,53,55,57,-1,-1,59,61,-1,63,65,67,69,71,73,75,77,79,81,83,85,87,-1,-1,89,91,93,95,97,99,101,103,-1,-1,-1,-1,-1,-1,-1,-1,-1,-1,-1,-1,-1,-1,-1,-1,-1,-1,-1,-1,-1,-1,-1,-1,-1,-1,-1,-1,-1,-1,-1,-1,-1,-1,-1,-1,-1,-1,-1,-1,-1,-1,-1,-1,-1,-1],"loss_changes":[4.027414E2,4.1140137E1,6.1418243E1,3.2423424E1,1.6474503E1,3.6630278E0,5.421663E1,2.6070137E0,1.6056124E1,1.1760757E1,9.124908E0,2.2317133E0,6.011181E-1,2.3533142E1,2.8923096E1,1.4011654E0,0E0,9.067707E0,1.7777214E0,6.696289E0,1.2448067E1,6.0776267E0,8.618824E0,2.2424698E0,2.4259849E0,0E0,1.473628E0,8.550751E0,6.739973E0,1.173523E0,2.706131E0,0E0,0E0,8.415298E0,5.7996984E0,0E0,1.9674191E0,2.286099E0,2.698166E0,3.771122E0,2.100048E-1,3.5690129E0,1.370606E0,5.1443863E0,4.0876923E0,2.6532128E-1,1.604188E0,3.3246305E0,1.4726973E-1,0E0,0E0,5.464409E0,5.443039E0,1.9627419E0,1.7741331E0,1.5557938E0,9.76593E-1,2.4317412E0,8.347409E-1,0E0,0E0,0E0,0E0,0E0,0E0,0E0,0E0,0E0,0E0,0E0,0E0,0E0,0E0,0E0,0E0,0E0,0E0,0E0,0E0,0E0,0E0,0E0,0E0,0E0,0E0,0E0,0E0,0E0,0E0,0E0,0E0,0E0,0E0,0E0,0E0,0E0,0E0,0E0,0E0,0E0,0E0,0E0,0E0,0E0,0E0],"parents":[2147483647,0,0,1,1,2,2,3,3,4,4,5,5,6,6,7,7,8,8,9,9,10,10,11,11,12,12,13,13,14,14,15,15,17,17,18,18,19,19,20,20,21,21,22,22,23,23,24,24,26,26,27,27,28,28,29,29,30,30,33,33,34,34,36,36,37,37,38,38,39,39,40,40,41,41,42,42,43,43,44,44,45,45,46,46,47,47,48,48,51,51,52,52,53,53,54,54,55,55,56,56,57,57,58,58],"right_children":[2,4,6,8,10,12,14,16,18,20,22,24,26,28,30,32,-1,34,36,38,40,42,44,46,48,-1,50,52,54,56,58,-1,-1,60,62,-1,64,66,68,70,72,74,76,78,80,82,84,86,88,-1,-1,90,92,94,96,98,100,102,104,-1,-1,-1,-1,-1,-1,-1,-1,-1,-1,-1,-1,-1,-1,-1,-1,-1,-1,-1,-1,-1,-1,-1,-1,-1,-1,-1,-1,-1,-1,-1,-1,-1,-1,-1,-1,-1,-1,-1,-1,-1,-1,-1,-1,-1,-1],"split_conditions":[4E-1,1.875E-1,5E-1,5E-1,2.333E-1,6.25E-1,8.75E-1,1.7E-1,8.8E-1,8.75E-1,4.5E-1,1.429E-1,6.833E-1,9.2E-1,6.667E-1,2.5E-1,8.755549E-2,8E-2,8E-1,3.5E-1,5.714E-1,9E-1,3.571E-1,4.5E-1,7.5E-1,8.316541E-2,3.6E-1,7.14E-2,8.5E-1,6.25E-1,2E-1,5.296616E-2,-3.7128653E-2,4.7E-1,6.429E-1,7.907021E-2,1.5E-1,6.667E-1,4.167E-1,3.8E-1,9.4E-1,3.75E-1,2.4E-1,1E0,8.3E-1,5.556E-1,5.6E-1,2.778E-1,4E-1,5.9508707E-2,-2.8781896E-2,7.2E-1,1E0,6.875E-1,1.25E-1,3.571E-1,7.6E-1,8.3E-1,3.5E-1,1.3754696E-2,4.7486722E-2,1.8108841E-2,-3.4235904E-4,5.1070478E-2,-2.718353E-2,2.7726332E-2,-3.5857145E-2,8.905334E-2,5.8275055E-2,1.5001207E-2,3.907928E-2,7.8086235E-2,3.2899607E-2,6.856852E-2,-1.5933268E-3,-7.250264E-3,6.268619E-2,1.3225253E-2,4.3676432E-2,4.3615874E-2,8.702275E-2,-5.5819447E-3,-4.416638E-2,7.353396E-2,3.0253068E-2,-2.277704E-2,1.755059E-2,7.4713096E-2,3.5549566E-2,-3.3965062E-2,-6.767232E-2,-2.675027E-2,-1.4078371E-2,-4.725328E-3,4.9589794E-2,-5.7283726E-2,5.9250104E-3,-8.542081E-2,-6.287424E-2,-5.938657E-2,-7.657292E-2,-4.0761705E-2,4.1204732E-2,1.7960126E-2,7.121193E-2],"split_indices":[2,4,3,3,2,4,2,5,0,3,0,4,2,0,4,3,0,2,3,5,4,5,4,5,0,0,0,4,5,1,0,0,0,0,3,0,4,4,3,0,5,3,0,1,0,2,5,4,3,0,0,2,1,3,4,4,5,5,0,0,0,0,0,0,0,0,0,0,0,0,0,0,0,0,0,0,0,0,0,0,0,0,0,0,0,0,0,0,0,0,0,0,0,0,0,0,0,0,0,0,0,0,0,0,0],"split_type":[0,0,0,0,0,0,0,0,0,0,0,0,0,0,0,0,0,0,0,0,0,0,0,0,0,0,0,0,0,0,0,0,0,0,0,0,0,0,0,0,0,0,0,0,0,0,0,0,0,0,0,0,0,0,0,0,0,0,0,0,0,0,0,0,0,0,0,0,0,0,0,0,0,0,0,0,0,0,0,0,0,0,0,0,0,0,0,0,0,0,0,0,0,0,0,0,0,0,0,0,0,0,0,0,0],"sum_hessian":[5.8991963E3,3.030006E3,2.8691902E3,1.5649979E3,1.4650083E3,2.1466963E2,2.6545205E3,6.6382545E1,1.4986154E3,8.075837E2,6.5742456E2,1.9632216E2,1.8347477E1,2.1995645E3,4.5495615E2,4.947907E0,6.1434635E1,1.4441368E3,5.4478455E1,4.7173242E2,3.358513E2,2.0161067E2,4.558139E2,9.5725525E1,1.00596634E2,1.023068E1,8.116796E0,2.1198586E3,7.970576E1,4.0235876E2,5.2597393E1,2.520896E0,2.427011E0,4.4985287E2,9.94284E2,3.2409134E1,2.2069323E1,4.091478E1,4.3081766E2,2.8172318E2,5.4128105E1,1.7760767E2,2.400301E1,2.719631E2,1.8385078E2,7.6550665E0,8.807046E1,9.082222E1,9.774415E0,6.239711E0,1.8770849E0,5.2902155E2,1.5908372E3,6.3244286E1,1.646147E1,1.8821777E2,2.1414099E2,1.8607225E1,3.3990166E1,3.5703687E2,9.2816E1,2.1717255E2,7.7711145E2,1.8892107E1,3.1772156E0,3.5098904E1,5.815876E0,3.426479E1,3.9655286E2,1.7813611E2,1.0358707E2,5.100967E1,3.1184356E0,6.569531E0,1.7103813E2,2.9879224E0,2.1015089E1,1.944795E2,7.74836E1,1.5792615E2,2.5924635E1,5.8395104E0,1.815556E0,9.447123E0,7.862334E1,2.943069E1,6.1391533E1,3.342105E0,6.43231E0,4.749857E2,5.4035824E1,1.0940924E3,4.967448E2,7.3468113E0,5.5897472E1,8.238477E0,8.222992E0,1.2488962E2,6.332815E1,1.4487794E2,6.926304E1,1.4787617E1,3.8196087E0,3.151806E1,2.4721045E0],"tree_param":{"num_deleted":"0","num_feature":"6","num_nodes":"105","size_leaf_vector":"1"}},{"base_weights":[3.0870273E-10,2.2405514E-1,-2.3435308E-1,8.083562E-1,2.0108396E-1,-3.460362E-1,-7.149155E-2,2.8204492E-1,8.55518E-1,1.6420797E-1,5.080865E-1,8.960333E-2,-3.916956E-1,1.1197621E-1,-1.3492978E-1,-4.5370486E-2,4.358362E-1,8.683849E-2,2.420618E-2,1.3605584E-1,6.691886E-1,4.205643E-1,7.752204E-1,2.5083372E-1,-4.527281E-2,-4.2203677E-1,1.3672559E-1,4.4279483E-1,6.444708E-2,2.2611737E-2,-2.3682751E-1,5.8267796E-1,-1.2558413E-2,2.9739314E-1,8.6821154E-2,-3.978068E-2,6.894255E-1,4.5915845E-1,9.665618E-2,8.1220436E-1,1.08148634E-1,4.000044E-2,6.142915E-1,7.254459E-2,-2.5130472E-1,-3.430984E-1,-5.683321E-1,4.0599838E-1,-7.812678E-2,-1.1064514E-1,6.2128043E-1,3.8541365E-2,4.955622E-1,-1.2561312E-1,3.0981174E-1,-2.4768867E-1,3.4379858E-1,7.0338055E-2,2.0059224E-2,1.6078519E-2,3.78223E-2,5.572229E-3,2.1832986E-2,5.1309645E-2,-4.111132E-2,4.8051517E-2,7.349542E-2,5.632313E-2,3.6643248E-2,4.0416222E-2,-3.6844697E-2,8.282937E-2,2.3968859E-2,-3.0271804E-2,4.0675897E-2,-9.864136E-3,4.3307193E-2,3.59399E-2,7.0914134E-2,-3.7242338E-2,1.3177231E-2,-5.588326E-2,1.4955438E-3,-4.9127158E-2,-2.8880833E-2,-4.6724167E-2,-6.761443E-2,4.818995E-2,-3.0633083E-2,9.2023343E-4,-5.216722E-2,-4.1519728E-2,3.9213058E-2,2.3535838E-2,6.4746335E-2,1.4980684E-2,-2.680109E-3,6.802168E-2,-3.1363633E-3,-3.055793E-2,-2.5738883E-4,5.7625324E-2,2.203562E-2,-3.4371234E-2,-1.747933E-2,7.749548E-2,-5.590538E-3],"categories":[],"categories_nodes":[],"categories_segments":[],"categories_sizes":[],"default_left":[0,0,0,0,0,0,0,0,0,0,0,0,0,0,0,0,0,0,0,0,0,0,0,0,0,0,0,0,0,0,0,0,0,0,0,0,0,0,0,0,0,0,0,0,0,0,0,0,0,0,0,0,0,0,0,0,0,0,0,0,0,0,0,0,0,0,0,0,0,0,0,0,0,0,0,0,0,0,0,0,0,0,0,0,0,0,0,0,0,0,0,0,0,0,0,0,0,0,0,0,0,0,0,0,0,0,0],"id":3,"left_children":[1,3,5,7,9,11,13,15,17,19,21,23,25,27,29,-1,31,-1,-1,33,35,37,39,41,43,45,47,49,51,53,55,57,-1,59,61,63,65,67,69,71,73,75,77,79,81,83,85,87,89,91,93,95,97,99,101,103,105,-1,-1,-1,-1,-1,-1,-1,-1,-1,-1,-1,-1,-1,-1,-1,-1,-1,-1,-1,-1,-1,-1,-1,-1,-1,-1,-1,-1,-1,-1,-1,-1,-1,-1,-1,-1,-1,-1,-1,-1,-1,-1,-1,-1,-1,-1,-1,-1,-1,-1],"loss_changes":[2.9533548E2,3.8432236E1,4.9978577E1,2.4503403E0,3.1253494E1,3.2468018E1,1.3045793E1,1.3756177E0,5.7146454E-1,3.5061188E1,6.6027527E0,3.3928213E0,2.3722809E1,4.503046E0,1.3367639E1,0E0,8.250296E-1,0E0,0E0,1.858841E1,1.8970985E0,2.7734032E0,1.6872025E0,5.4146852E0,2.0940485E0,1.5927933E1,4.712383E0,3.6282864E0,2.8083837E0,1.3995092E1,3.2732239E0,2.0048618E-1,0E0,5.9846535E0,7.336587E0,1.1475127E0,8.524399E-1,1.7346649E0,3.7623076E0,4.2797852E-1,7.283645E-1,2.5491388E0,3.7346077E-1,1.5033327E0,2.574131E0,7.173195E0,5.000305E0,2.0976167E0,1.780322E0,1.638314E0,1.24464035E-1,1.7481966E0,1.4094331E0,4.8031073E0,2.5398722E0,3.4176311E0,1.7152646E0,0E0,0E0,0E0,0E0,0E0,0E0,0E0,0E0,0E0,0E0,0E0,0E0,0E0,0E0,0E0,0E0,0E0,0E0,0E0,0E0,0E0,0E0,0E0,0E0,0E0,0E0,0E0,0E0,0E0,0E0,0E0,0E0,0E0,0E0,0E0,0E0,0E0,0E0,0E0,0E0,0E0,0E0,0E0,0E0,0E0,0E0,0E0,0E0,0E0,0E0],"parents":[2147483647,0,0,1,1,2,2,3,3,4,4,5,5,6,6,7,7,8,8,9,9,10,10,11,11,12,12,13,13,14,14,16,16,19,19,20,20,21,21,22,22,23,23,24,24,25,25,26,26,27,27,28,28,29,29,30,30,31,31,33,33,34,34,35,35,36,36,37,37,38,38,39,39,40,40,41,41,42,42,43,43,44,44,45,45,46,46,47,47,48,48,49,49,50,50,51,51,52,52,53,53,54,54,55,55,56,56],"right_children":[2,4,6,8,10,12,14,16,18,20,22,24,26,28,30,-1,32,-1,-1,34,36,38,40,42,44,46,48,50,52,54,56,58,-1,60,62,64,66,68,70,72,74,76,78,80,82,84,86,88,90,92,94,96,98,100,102,104,106,-1,-1,-1,-1,-1,-1,-1,-1,-1,-1,-1,-1,-1,-1,-1,-1,-1,-1,-1,-1,-1,-1,-1,-1,-1,-1,-1,-1,-1,-1,-1,-1,-1,-1,-1,-1,-1,-1,-1,-1,-1,-1,-1,-1,-1,-1,-1,-1,-1,-1],"split_conditions":[4E-1,4.167E-1,5.2E-1,1.9E-1,6.9E-1,3.889E-1,6.667E-1,1.9E-1,3.7E-1,5.714E-1,7.5E-1,5.111E-1,8.333E-1,4E-1,5.8E-1,-4.5370486E-2,1.875E-1,8.683849E-2,2.420618E-2,6.429E-1,2.6E-1,9.6E-1,9.9E-1,3.1E-1,8.3E-1,6.833E-1,5.111E-1,7.14E-2,5.714E-1,6.7E-1,7E-1,6.3E-1,-1.2558413E-2,5.556E-1,3.889E-1,3.3E-1,4.3E-1,2.75E-1,2.833E-1,9.444E-1,8E-1,2.778E-1,7.14E-2,1.5E-1,5.556E-1,2.6E-1,8.571E-1,3.4E-1,3.1E-1,8.3E-1,1.111E-1,6E-1,6.4E-1,5.9E-1,3.1E-1,6.4E-1,7.778E-1,7.0338055E-2,2.0059224E-2,1.6078519E-2,3.78223E-2,5.572229E-3,2.1832986E-2,5.1309645E-2,-4.111132E-2,4.8051517E-2,7.349542E-2,5.632313E-2,3.6643248E-2,4.0416222E-2,-3.6844697E-2,8.282937E-2,2.3968859E-2,-3.0271804E-2,4.0675897E-2,-9.864136E-3,4.3307193E-2,3.59399E-2,7.0914134E-2,-3.7242338E-2,1.3177231E-2,-5.588326E-2,1.4955438E-3,-4.9127158E-2,-2.8880833E-2,-4.6724167E-2,-6.761443E-2,4.818995E-2,-3.0633083E-2,9.2023343E-4,-5.216722E-2,-4.1519728E-2,3.9213058E-2,2.3535838E-2,6.4746335E-2,1.4980684E-2,-2.680109E-3,6.802168E-2,-3.1363633E-3,-3.055793E-2,-2.5738883E-4,5.7625324E-2,2.203562E-2,-3.4371234E-2,-1.747933E-2,7.749548E-2,-5.590538E-3],"split_indices":[2,3,0,5,0,3,3,0,2,4,1,2,4,3,5,0,4,0,0,3,5,5,0,0,5,2,2,4,4,0,4,0,0,1,4,0,5,2,2,3,1,4,4,0,1,0,3,0,0,5,4,0,2,0,5,0,3,0,0,0,0,0,0,0,0,0,0,0,0,0,0,0,0,0,0,0,0,0,0,0,0,0,0,0,0,0,0,0,0,0,0,0,0,0,0,0,0,0,0,0,0,0,0,0,0,0,0],"split_type":[0,0,0,0,0,0,0,0,0,0,0,0,0,0,0,0,0,0,0,0,0,0,0,0,0,0,0,0,0,0,0,0,0,0,0,0,0,0,0,0,0,0,0,0,0,0,0,0,0,0,0,0,0,0,0,0,0,0,0,0,0,0,0,0,0,0,0,0,0,0,0,0,0,0,0,0,0,0,0,0,0,0,0,0,0,0,0,0,0,0,0,0,0,0,0,0,0,0,0,0,0,0,0,0,0,0,0],"sum_hessian":[5.6225796E3,2.8744668E3,2.748113E3,1.0743866E2,2.767028E3,1.6295298E3,1.1185831E3,9.409694E0,9.802897E1,2.4716746E3,2.953534E2,1.5449731E2,1.4750325E3,2.8720407E2,8.313791E2,1.2896711E0,8.120023E0,9.560808E1,2.4208868E0,2.34236E3,1.2931462E2,2.2440497E2,7.0948425E1,6.998172E1,8.4515594E1,1.3951277E3,7.99049E1,3.503468E1,2.5216939E2,3.2683926E2,5.0453986E2,6.40651E0,1.7135128E0,5.464981E2,1.7958618E3,3.5619397E0,1.2575268E2,2.0014037E2,2.4264606E1,6.701537E1,3.933051E0,4.499262E1,2.4989101E1,5.4180744E1,3.033485E1,9.083456E2,4.8678204E2,3.506657E1,4.4838326E1,8.63616E0,2.639852E1,2.3890309E2,1.3266293E1,2.159496E2,1.1088966E2,4.9583817E2,8.7017E0,4.2294965E0,2.1770134E0,2.0426517E2,3.4223297E2,1.4535529E3,3.4230896E2,1.2777405E0,2.2841992E0,2.4569317E1,1.01183365E2,9.1909645E1,1.0823073E2,1.4685931E1,9.578674E0,6.4748985E1,2.2663903E0,1.649584E0,2.283467E0,3.381474E1,1.117788E1,8.075833E0,1.6913267E1,5.743418E0,4.843733E1,1.3566664E1,1.6768185E1,2.414126E2,6.66933E2,2.5397522E2,2.3280684E2,3.1982244E1,3.0843282E0,3.8280563E1,6.5577602E0,5.48678E0,3.1493802E0,2.3118637E0,2.4086657E1,8.791253E1,1.5099055E2,9.608277E0,3.6580153E0,8.708667E1,1.2886293E2,2.6504574E1,8.4385086E1,2.1237088E2,2.8346725E2,3.7345076E0,4.9671926E0],"tree_param":{"num_deleted":"0","num_feature":"6","num_nodes":"107","size_leaf_vector":"1"}},{"base_weights":[-1.2333109E-11,2.1150424E-1,-2.2530465E-1,6.0657013E-2,3.017873E-1,-1.4720385E-1,-4.095632E-1,7.6929766E-1,3.126028E-2,4.351637E-1,2.241943E-1,-2.2326447E-1,-1.08632E-2,-5.4054844E-1,-2.276628E-1,3.453079E-1,8.23335E-2,1.6536102E-1,-5.297479E-2,6.9660604E-1,3.7544832E-1,1.9847637E-1,5.777407E-1,-1.619167E-1,-4.5308983E-1,-5.1949874E-2,4.1878983E-1,-6.119926E-1,-4.245775E-1,-1.16894E-1,-4.146448E-1,-3.8485765E-2,5.9058744E-2,-1.10129625E-1,2.291435E-1,-1.059427E-1,6.83329E-2,1.8878691E-1,7.370659E-1,3.3572528E-1,7.7085084E-1,2.8220204E-1,1.1040306E-1,3.6470664E-1,6.510497E-2,-2.0203751E-1,1.941989E-1,1.1073867E-1,-5.164636E-1,1.4931261E-2,-1.90288E-1,6.9931865E-1,3.3462802E-1,-7.681663E-1,-5.156868E-1,-3.4153828E-1,-5.9182703E-1,-2.9421777E-1,5.3510766E-2,1.3527098E-1,-4.6703443E-1,-1.7343473E-2,1.5761334E-2,4.0196713E-2,1.0949912E-2,8.9410385E-3,-1.7265605E-2,2.4660223E-3,4.78343E-2,4.8830684E-2,9.997697E-3,8.010901E-2,4.6025675E-2,6.682513E-2,3.0271232E-2,7.888126E-2,6.4566745E-3,1.1391887E-2,3.568827E-2,7.0742755E-3,4.4025563E-2,6.735438E-2,2.0040706E-2,1.3921927E-2,-2.1931313E-2,7.112107E-2,6.3609965E-3,-1.0946501E-2,5.766377E-2,-3.5888776E-2,-6.0240615E-2,-2.1097024E-3,2.6776135E-2,-1.6750252E-2,-6.5665655E-2,1.4350897E-3,7.6241426E-2,6.0303897E-2,2.4444403E-2,-8.143434E-2,-5.016951E-2,-4.678602E-2,-7.392701E-2,-2.715735E-2,-5.096185E-2,-4.9590513E-2,-7.988342E-2,-4.53566E-2,6.8830214E-3,-1.4585882E-2,1.9646196E-2,3.350013E-2,-1.5233904E-2,-5.5126257E-2,-2.100582E-2],"categories":[],"categories_nodes":[],"categories_segments":[],"categories_sizes":[],"default_left":[0,0,0,0,0,0,0,0,0,0,0,0,0,0,0,0,0,0,0,0,0,0,0,0,0,0,0,0,0,0,0,0,0,0,0,0,0,0,0,0,0,0,0,0,0,0,0,0,0,0,0,0,0,0,0,0,0,0,0,0,0,0,0,0,0,0,0,0,0,0,0,0,0,0,0,0,0,0,0,0,0,0,0,0,0,0,0,0,0,0,0,0,0,0,0,0,0,0,0,0,0,0,0,0,0,0,0,0,0,0,0,0,0,0,0],"id":4,"left_children":[1,3,5,7,9,11,13,15,17,19,21,23,25,27,29,31,-1,33,35,37,39,41,43,45,47,49,51,53,55,57,59,-1,-1,61,63,65,67,69,71,73,75,77,79,81,-1,83,85,87,89,91,93,95,97,99,101,103,105,107,109,111,113,-1,-1,-1,-1,-1,-1,-1,-1,-1,-1,-1,-1,-1,-1,-1,-1,-1,-1,-1,-1,-1,-1,-1,-1,-1,-1,-1,-1,-1,-1,-1,-1,-1,-1,-1,-1,-1,-1,-1,-1,-1,-1,-1,-1,-1,-1,-1,-1,-1,-1,-1,-1,-1,-1],"loss_changes":[2.5854645E2,3.8094566E1,3.7745667E1,2.1829712E1,1.8018051E1,1.914721E1,1.8496948E1,6.720753E-1,1.1398715E1,9.7730255E0,9.966293E0,1.6638374E1,1.1713702E1,3.4984589E0,6.7633896E0,1.380852E0,0E0,6.86506E0,3.9913924E0,2.292328E0,7.993469E0,7.6013374E0,9.28524E-1,1.3428415E1,8.96069E0,5.604146E0,1.1334314E0,3.7914429E0,2.2447453E0,6.2986755E0,3.5768242E0,0E0,0E0,1.2791362E0,6.498358E0,5.645509E0,3.373636E0,2.1923843E-1,1.5677147E0,5.0583E0,5.477562E-1,6.6198883E0,6.589335E0,9.5026374E-1,0E0,4.9987144E0,6.395606E0,2.7305887E0,2.8196793E0,3.7314997E0,1.9873877E0,5.2706814E-1,9.774556E-1,8.7309647E-1,1.5282478E0,1.2738762E0,7.3742676E-1,5.934884E0,3.0747173E0,7.0496446E-1,2.2992287E0,0E0,0E0,0E0,0E0,0E0,0E0,0E0,0E0,0E0,0E0,0E0,0E0,0E0,0E0,0E0,0E0,0E0,0E0,0E0,0E0,0E0,0E0,0E0,0E0,0E0,0E0,0E0,0E0,0E0,0E0,0E0,0E0,0E0,0E0,0E0,0E0,0E0,0E0,0E0,0E0,0E0,0E0,0E0,0E0,0E0,0E0,0E0,0E0,0E0,0E0,0E0,0E0,0E0,0E0],"parents":[2147483647,0,0,1,1,2,2,3,3,4,4,5,5,6,6,7,7,8,8,9,9,10,10,11,11,12,12,13,13,14,14,15,15,17,17,18,18,19,19,20,20,21,21,22,22,23,23,24,24,25,25,26,26,27,27,28,28,29,29,30,30,33,33,34,34,35,35,36,36,37,37,38,38,39,39,40,40,41,41,42,42,43,43,45,45,46,46,47,47,48,48,49,49,50,50,51,51,52,52,53,53,54,54,55,55,56,56,57,57,58,58,59,59,60,60],"right_children":[2,4,6,8,10,12,14,16,18,20,22,24,26,28,30,32,-1,34,36,38,40,42,44,46,48,50,52,54,56,58,60,-1,-1,62,64,66,68,70,72,74,76,78,80,82,-1,84,86,88,90,92,94,96,98,100,102,104,106,108,110,112,114,-1,-1,-1,-1,-1,-1,-1,-1,-1,-1,-1,-1,-1,-1,-1,-1,-1,-1,-1,-1,-1,-1,-1,-1,-1,-1,-1,-1,-1,-1,-1,-1,-1,-1,-1,-1,-1,-1,-1,-1,-1,-1,-1,-1,-1,-1,-1,-1,-1,-1,-1,-1,-1,-1],"split_conditions":[4E-1,7.14E-2,1E0,5E-1,7.5E-1,3E-1,3.571E-1,1.9E-1,8E-2,8E-2,5.714E-1,7.5E-1,7E-1,4.3E-1,5.556E-1,1.9E-1,8.23335E-2,4.5E-1,4.5E-1,3.2E-1,7.9E-1,2.222E-1,4.7E-1,8.4E-1,1.25E-1,6.571E-1,3E-1,5.556E-1,7.9E-1,5.556E-1,1.2E-1,-3.8485765E-2,5.9058744E-2,3.2E-1,8.889E-1,1.8E-1,7E-1,1.4E-1,8.6E-1,4.167E-1,9.9E-1,5.556E-1,8.3E-1,3.5E-1,6.510497E-2,2.5E-1,4.8E-1,8.9E-1,8.333E-1,8E-1,8.571E-1,1.5E-1,4.5E-1,3.6E-1,3.6E-1,6.444E-1,6.4E-1,4.2E-1,1.9E-1,7.6E-1,6.667E-1,-1.7343473E-2,1.5761334E-2,4.0196713E-2,1.0949912E-2,8.9410385E-3,-1.7265605E-2,2.4660223E-3,4.78343E-2,4.8830684E-2,9.997697E-3,8.010901E-2,4.6025675E-2,6.682513E-2,3.0271232E-2,7.888126E-2,6.4566745E-3,1.1391887E-2,3.568827E-2,7.0742755E-3,4.4025563E-2,6.735438E-2,2.0040706E-2,1.3921927E-2,-2.1931313E-2,7.112107E-2,6.3609965E-3,-1.0946501E-2,5.766377E-2,-3.5888776E-2,-6.0240615E-2,-2.1097024E-3,2.6776135E-2,-1.6750252E-2,-6.5665655E-2,1.4350897E-3,7.6241426E-2,6.0303897E-2,2.4444403E-2,-8.143434E-2,-5.016951E-2,-4.678602E-2,-7.392701E-2,-2.715735E-2,-5.096185E-2,-4.9590513E-2,-7.988342E-2,-4.53566E-2,6.8830214E-3,-1.4585882E-2,1.9646196E-2,3.350013E-2,-1.5233904E-2,-5.5126257E-2,-2.100582E-2],"split_indices":[2,4,3,3,3,4,4,5,2,2,4,2,4,0,2,0,0,5,0,5,0,2,5,0,3,2,3,1,5,1,0,0,0,0,3,0,1,0,5,3,0,1,0,5,0,3,5,5,2,0,3,0,5,0,0,2,0,0,0,5,4,0,0,0,0,0,0,0,0,0,0,0,0,0,0,0,0,0,0,0,0,0,0,0,0,0,0,0,0,0,0,0,0,0,0,0,0,0,0,0,0,0,0,0,0,0,0,0,0,0,0,0,0,0,0],"split_type":[0,0,0,0,0,0,0,0,0,0,0,0,0,0,0,0,0,0,0,0,0,0,0,0,0,0,0,0,0,0,0,0,0,0,0,0,0,0,0,0,0,0,0,0,0,0,0,0,0,0,0,0,0,0,0,0,0,0,0,0,0,0,0,0,0,0,0,0,0,0,0,0,0,0,0,0,0,0,0,0,0,0,0,0,0,0,0,0,0,0,0,0,0,0,0,0,0,0,0,0,0,0,0,0,0,0,0,0,0,0,0,0,0,0,0],"sum_hessian":[5.42362E3,2.7975178E3,2.6261023E3,1.0480616E3,1.7494562E3,1.8456107E3,7.8049146E2,4.0742767E1,1.0073189E3,6.41742E2,1.1077141E3,1.1842906E3,6.613201E2,4.5260327E2,3.278882E2,5.441063E0,3.5301704E1,3.8825723E2,6.1906165E2,1.1734107E2,5.2440094E2,1.0340555E3,7.3658615E1,9.361158E2,2.4817482E2,6.0440173E2,5.6918377E1,2.774206E2,1.751827E2,2.0692831E2,1.209599E2,1.2250853E0,4.2159777E0,7.285477E1,3.1540247E2,4.3099725E2,1.8806439E2,9.07723E0,1.0826384E2,4.7820813E2,4.6192825E1,5.2898206E2,5.050735E2,2.0387619E1,5.3270996E1,8.417185E2,9.439731E1,2.5000557E1,2.2317427E2,4.0802805E2,1.9637369E2,1.14486E1,4.5469776E1,1.03158264E2,1.7426231E2,1.1909448E2,5.6088207E1,1.0104939E2,1.05878914E2,1.0383707E1,1.10576195E2,5.9207897E1,1.3646869E1,1.2806122E2,1.8734123E2,1.09630875E2,3.213664E2,1.7091891E2,1.7145475E1,1.0471804E0,8.03005E0,8.638868E1,2.1875158E1,4.1450638E1,4.3675748E2,4.493327E1,1.2595565E0,1.6337132E2,3.6561072E2,4.519474E2,5.312609E1,6.0034084E0,1.438421E1,4.021745E1,8.0150104E2,1.8138681E1,7.625863E1,1.749617E1,7.5043883E0,8.0589386E1,1.4258488E2,3.579384E2,5.0089657E1,1.8852217E2,7.8515177E0,1.0691639E0,1.0379436E1,1.0005136E1,3.546464E1,8.616979E1,1.698848E1,1.4610219E2,2.8160126E1,8.593786E1,3.3156628E1,4.0648373E1,1.5439834E1,7.005269E1,3.0996702E1,4.4205933E1,6.1672985E1,6.0308304E0,4.3528767E0,8.241737E1,2.815882E1],"tree_param":{"num_deleted":"0","num_feature":"6","num_nodes":"115","size_leaf_vector":"1"}},{"base_weights":[7.7469375E-10,2.0134132E-1,-2.1332985E-1,2.8101832E-1,6.06817E-2,2.519334E-1,-2.496202E-1,7.182535E-1,2.5631586E-1,3.9233506E-2,5.149561E-1,2.5872443E-2,4.1467395E-1,-1.9705194E-1,-5.3052026E-1,2.699431E-1,8.420741E-2,3.56035E-1,1.6340783E-1,5.5294804E-2,-2.9997554E-1,2.8465447E-1,6.102672E-1,7.803499E-2,-3.7724572E-1,-7.963078E-2,4.442023E-1,-2.48698E-1,-3.3950232E-2,-5.731707E-1,-1.715305E-1,5.086642E-1,6.544871E-2,3.1207648E-1,5.8500326E-1,-1.5670747E-2,2.5975445E-1,-1.5663024E-2,1.3016851E-1,5.0583545E-2,-5.2385634E-1,5.6392366E-1,-1.2047299E-1,2.0067476E-2,6.318879E-1,1.7744936E-2,6.261526E-2,-5.716633E-1,3.1187525E-2,-2.5298163E-2,1.8846206E-2,4.842507E-1,5.1966675E-2,-2.6383078E-1,3.6330914E-1,-9.9628456E-2,1.4447582E-1,-4.6525186E-1,-6.524901E-1,-2.1379276E-1,5.7914745E-2,1.3059944E-2,5.8578055E-2,5.8372427E-2,-7.2610117E-3,5.252358E-3,3.3352412E-2,7.987839E-2,5.3608622E-2,-1.2560384E-2,1.8874248E-2,3.0670365E-2,-8.264254E-3,-1.1166287E-2,1.0952486E-2,3.6399232E-3,3.9350316E-2,-3.3813853E-2,3.5785776E-2,-6.9721594E-2,-3.150054E-2,2.9525664E-3,6.58321E-2,4.4430178E-2,-2.9726071E-2,8.012282E-2,4.830683E-2,9.066905E-3,-3.393252E-2,-6.48428E-2,-1.5111923E-2,3.6752377E-2,6.714209E-2,-1.9256419E-2,4.287413E-2,-3.5888486E-2,-1.9125016E-2,4.4961195E-2,-1.0380366E-4,-1.4821343E-2,1.2339651E-2,2.0683622E-2,-5.9864237E-3,-5.3564858E-2,-2.268759E-2,-7.5682156E-2,-5.6293752E-2,-3.0748127E-2,-1.654185E-3],"categories":[],"categories_nodes":[],"categories_segments":[],"categories_sizes":[],"default_left":[0,0,0,0,0,0,0,0,0,0,0,0,0,0,0,0,0,0,0,0,0,0,0,0,0,0,0,0,0,0,0,0,0,0,0,0,0,0,0,0,0,0,0,0,0,0,0,0,0,0,0,0,0,0,0,0,0,0,0,0,0,0,0,0,0,0,0,0,0,0,0,0,0,0,0,0,0,0,0,0,0,0,0,0,0,0,0,0,0,0,0,0,0,0,0,0,0,0,0,0,0,0,0,0,0,0,0,0,0],"id":5,"left_children":[1,3,5,7,9,11,13,15,17,19,21,23,25,27,29,31,-1,33,35,37,39,41,43,45,47,49,51,53,55,57,59,61,63,65,67,69,71,73,75,77,79,81,83,-1,85,87,-1,89,-1,-1,-1,91,93,95,97,99,101,103,105,107,-1,-1,-1,-1,-1,-1,-1,-1,-1,-1,-1,-1,-1,-1,-1,-1,-1,-1,-1,-1,-1,-1,-1,-1,-1,-1,-1,-1,-1,-1,-1,-1,-1,-1,-1,-1,-1,-1,-1,-1,-1,-1,-1,-1,-1,-1,-1,-1,-1],"loss_changes":[2.2624194E2,3.0352547E1,4.3245354E1,1.8497131E1,9.539772E0,6.8154745E0,3.4935654E1,4.8761635E0,1.5123703E1,5.127068E0,7.9548645E-1,1.6849804E0,1.6090698E0,1.6842705E1,5.62014E0,1.0098813E0,0E0,7.7640457E0,1.4672388E1,4.7648244E0,3.3669446E0,1.7422675E0,1.4201641E-1,2.3199477E0,1.4097874E0,3.695389E-1,1.575386E0,1.41658325E1,5.665925E0,2.5503387E0,1.4273403E0,2.066431E-1,9.480431E-1,3.68161E0,8.896332E-1,6.727885E0,8.912098E0,5.5544453E0,1.075915E1,2.2112947E0,7.239938E-1,4.313531E-1,8.172757E-1,0E0,3.278656E-1,1.7123345E0,0E0,1.4484954E-1,0E0,0E0,0E0,1.7704792E0,1.0554681E0,1.016362E1,1.1663852E0,3.8443625E0,1.6710474E0,2.307024E0,1.3461304E0,7.272488E-1,0E0,0E0,0E0,0E0,0E0,0E0,0E0,0E0,0E0,0E0,0E0,0E0,0E0,0E0,0E0,0E0,0E0,0E0,0E0,0E0,0E0,0E0,0E0,0E0,0E0,0E0,0E0,0E0,0E0,0E0,0E0,0E0,0E0,0E0,0E0,0E0,0E0,0E0,0E0,0E0,0E0,0E0,0E0,0E0,0E0,0E0,0E0,0E0,0E0],"parents":[2147483647,0,0,1,1,2,2,3,3,4,4,5,5,6,6,7,7,8,8,9,9,10,10,11,11,12,12,13,13,14,14,15,15,17,17,18,18,19,19,20,20,21,21,22,22,23,23,24,24,25,25,26,26,27,27,28,28,29,29,30,30,31,31,32,32,33,33,34,34,35,35,36,36,37,37,38,38,39,39,40,40,41,41,42,42,44,44,45,45,47,47,51,51,52,52,53,53,54,54,55,55,56,56,57,57,58,58,59,59],"right_children":[2,4,6,8,10,12,14,16,18,20,22,24,26,28,30,32,-1,34,36,38,40,42,44,46,48,50,52,54,56,58,60,62,64,66,68,70,72,74,76,78,80,82,84,-1,86,88,-1,90,-1,-1,-1,92,94,96,98,100,102,104,106,108,-1,-1,-1,-1,-1,-1,-1,-1,-1,-1,-1,-1,-1,-1,-1,-1,-1,-1,-1,-1,-1,-1,-1,-1,-1,-1,-1,-1,-1,-1,-1,-1,-1,-1,-1,-1,-1,-1,-1,-1,-1,-1,-1,-1,-1,-1,-1,-1,-1],"split_conditions":[4E-1,9.444E-1,4.167E-1,4.167E-1,5.714E-1,7.14E-2,8.75E-1,3.8E-1,2.333E-1,3.375E-1,4.7E-1,9.5E-1,3.8E-1,6.5E-1,6.667E-1,1.714E-1,8.420741E-2,6.5E-1,5E-1,6.8E-1,6.25E-1,5.556E-1,7E-1,8.9E-1,9.9E-1,5.714E-1,4E-1,1E0,7.5E-1,7.778E-1,3.5E-1,1.9E-1,1.25E-1,4.286E-1,4.6E-1,2.778E-1,9.3E-1,3.2E-1,3.889E-1,1.111E-1,6.9E-1,2.1E-1,2.9E-1,2.0067476E-2,7.4E-1,8.6E-1,6.261526E-2,4.2E-1,3.1187525E-2,-2.5298163E-2,1.8846206E-2,4.9E-1,5.5E-1,1.875E-1,3.3E-1,4.167E-1,8.8E-1,3.4E-1,6.25E-1,2.5E-1,5.7914745E-2,1.3059944E-2,5.8578055E-2,5.8372427E-2,-7.2610117E-3,5.252358E-3,3.3352412E-2,7.987839E-2,5.3608622E-2,-1.2560384E-2,1.8874248E-2,3.0670365E-2,-8.264254E-3,-1.1166287E-2,1.0952486E-2,3.6399232E-3,3.9350316E-2,-3.3813853E-2,3.5785776E-2,-6.9721594E-2,-3.150054E-2,2.9525664E-3,6.58321E-2,4.4430178E-2,-2.9726071E-2,8.012282E-2,4.830683E-2,9.066905E-3,-3.393252E-2,-6.48428E-2,-1.5111923E-2,3.6752377E-2,6.714209E-2,-1.9256419E-2,4.287413E-2,-3.5888486E-2,-1.9125016E-2,4.4961195E-2,-1.0380366E-4,-1.4821343E-2,1.2339651E-2,2.0683622E-2,-5.9864237E-3,-5.3564858E-2,-2.268759E-2,-7.5682156E-2,-5.6293752E-2,-3.0748127E-2,-1.654185E-3],"split_indices":[2,3,3,3,4,4,2,5,2,2,5,5,5,0,4,2,0,0,0,5,1,1,4,5,5,4,3,4,1,3,0,5,3,1,5,4,5,0,4,4,5,0,5,0,5,5,0,0,0,0,0,0,2,4,0,4,0,0,1,0,0,0,0,0,0,0,0,0,0,0,0,0,0,0,0,0,0,0,0,0,0,0,0,0,0,0,0,0,0,0,0,0,0,0,0,0,0,0,0,0,0,0,0,0,0,0,0,0,0],"split_type":[0,0,0,0,0,0,0,0,0,0,0,0,0,0,0,0,0,0,0,0,0,0,0,0,0,0,0,0,0,0,0,0,0,0,0,0,0,0,0,0,0,0,0,0,0,0,0,0,0,0,0,0,0,0,0,0,0,0,0,0,0,0,0,0,0,0,0,0,0,0,0,0,0,0,0,0,0,0,0,0,0,0,0,0,0,0,0,0,0,0,0,0,0,0,0,0,0,0,0,0,0,0,0,0,0,0,0,0,0],"sum_hessian":[5.2653066E3,2.708795E3,2.5565117E3,1.7286171E3,9.8017773E2,1.8454865E2,2.3719631E3,9.093777E1,1.6376793E3,9.370233E2,4.315443E1,7.77316E1,1.06817055E2,1.9994779E3,3.7248523E2,2.0368994E1,7.056877E1,7.885202E2,8.491591E2,8.954609E2,4.156243E1,1.3798792E1,2.9355639E1,6.953974E1,8.191857E0,5.9256063E0,1.0089145E2,1.5182122E3,4.812658E2,3.323975E2,4.0087746E1,8.711733E0,1.1657262E1,6.635008E2,1.2501939E2,2.9733768E2,5.518215E2,4.6015894E2,4.3530194E2,1.650012E1,2.506231E1,7.936148E0,5.8626437E0,1.9873799E0,2.7368258E1,6.357878E1,5.960957E0,6.522226E0,1.6696312E0,3.6329067E0,2.2926993E0,9.1331635E1,9.559816E0,1.4821332E3,3.6078995E1,3.5210016E2,1.2916565E2,1.4372136E2,1.8867613E2,3.8628227E1,1.4595212E0,1.932271E0,6.779462E0,1.7730634E0,9.884198E0,5.0905544E1,6.125953E2,2.0425417E1,1.0459397E2,1.9360355E2,1.0373412E2,4.8537192E2,6.6449554E1,2.60502E2,1.9965692E2,3.218386E2,1.1346336E2,7.240265E0,9.259855E0,1.2417036E1,1.2645274E1,1.3884871E0,6.547661E0,1.0369042E0,4.8257394E0,1.075096E1,1.6617298E1,5.3415794E1,1.0162986E1,5.05722E0,1.4650058E0,5.8076412E1,3.3255222E1,6.093793E0,3.466024E0,6.400097E2,8.421234E2,2.8980396E1,7.098596E0,2.8939273E2,6.270744E1,9.895454E1,3.0211107E1,1.0999175E2,3.3729607E1,8.370551E1,1.0497062E2,2.581026E1,1.28179655E1],"tree_param":{"num_deleted":"0","num_feature":"6","num_nodes":"109","size_leaf_vector":"1"}},{"base_weights":[4.2578777E-10,1.7762776E-1,-2.3483236E-1,6.876096E-1,1.6038486E-1,-7.984637E-2,-3.3316207E-1,3.454377E-1,7.766938E-1,1.1073963E-1,3.2608E-1,-1.1261559E-2,-3.0856568E-1,-2.634098E-1,-5.3415257E-1,4.713632E-1,-3.53183E-2,8.162134E-2,4.433558E-1,8.490261E-2,3.6544892E-1,2.7827072E-1,6.361505E-1,2.563267E-1,-6.8721116E-2,-3.5701004E-1,1.4379783E-1,-3.4099394E-1,-1.5116477E-1,-5.758747E-1,-8.303905E-2,1.6761874E-1,5.385651E-1,5.2816127E-3,5.30772E-1,1.2728718E-1,-4.2618252E-2,4.606791E-1,1.1406579E-1,2.5384918E-1,8.270361E-1,4.9604657E-1,6.842635E-1,2.2357015E-1,7.5167805E-2,-8.341957E-2,1.7673199E-1,-9.544482E-2,-4.2286295E-1,4.7111344E-2,2.1129733E-2,-4.3293986E-1,-1.9371809E-1,-8.489124E-2,-3.604442E-1,-4.336031E-1,-6.5601164E-1,-1.6712308E-1,2.7603862E-1,-1.4716493E-3,2.6437355E-2,5.725813E-2,1.3286791E-2,1.8220691E-2,6.3788794E-2,2.122099E-2,5.273552E-3,-2.8327284E-3,-5.777341E-2,7.391407E-2,4.0495772E-2,-8.062869E-4,6.2030878E-2,2.866798E-2,-6.441807E-3,8.609867E-2,1.3576226E-2,5.8975637E-2,1.1986894E-2,6.070686E-2,8.450049E-2,3.1126205E-2,6.501785E-3,-2.0064112E-2,-4.24152E-3,3.7083175E-2,-6.6334605E-3,-3.2615647E-2,-3.0538419E-3,-4.5117617E-2,3.376153E-2,-1.5313051E-2,3.5030417E-2,-4.7077972E-2,-2.259609E-2,-2.7863234E-2,-6.668207E-4,-1.3690883E-2,1.9925717E-2,-4.4992436E-2,-5.4213116E-3,3.625893E-2,-4.477048E-2,-2.7737886E-2,-6.865268E-2,4.955283E-4,-2.3848407E-2,4.4645343E-2,-2.2148985E-2],"categories":[],"categories_nodes":[],"categories_segments":[],"categories_sizes":[],"default_left":[0,0,0,0,0,0,0,0,0,0,0,0,0,0,0,0,0,0,0,0,0,0,0,0,0,0,0,0,0,0,0,0,0,0,0,0,0,0,0,0,0,0,0,0,0,0,0,0,0,0,0,0,0,0,0,0,0,0,0,0,0,0,0,0,0,0,0,0,0,0,0,0,0,0,0,0,0,0,0,0,0,0,0,0,0,0,0,0,0,0,0,0,0,0,0,0,0,0,0,0,0,0,0,0,0,0,0,0,0],"id":6,"left_children":[1,3,5,7,9,11,13,15,17,19,21,23,25,27,29,31,-1,-1,33,35,37,39,41,43,45,47,49,51,53,55,57,59,61,-1,63,65,67,69,71,73,75,77,79,81,-1,83,85,87,89,-1,91,93,95,97,99,101,103,105,107,-1,-1,-1,-1,-1,-1,-1,-1,-1,-1,-1,-1,-1,-1,-1,-1,-1,-1,-1,-1,-1,-1,-1,-1,-1,-1,-1,-1,-1,-1,-1,-1,-1,-1,-1,-1,-1,-1,-1,-1,-1,-1,-1,-1,-1,-1,-1,-1,-1,-1],"loss_changes":[2.1400623E2,2.5575844E1,3.3644997E1,2.6344414E0,2.321695E1,1.3470799E1,1.8806686E1,2.0554664E0,6.2290573E-1,1.42930565E1,9.47625E0,1.0193858E1,4.392931E0,8.702881E0,6.4873047E0,2.8982592E-1,0E0,0E0,3.172016E-1,1.0693386E1,4.7389584E0,7.3749847E0,2.4172592E-1,1.7337646E0,1.9832911E0,3.0469952E0,7.88133E-1,7.9545975E0,5.6928606E0,3.3371964E0,9.689118E-1,8.9018494E-2,1.2810898E-1,0E0,1.8815947E-1,9.3867855E0,3.761748E0,1.9479427E0,3.487084E0,5.695324E0,4.3865395E-1,8.343544E-1,2.5063896E-1,1.5281024E0,0E0,2.469245E0,1.4941863E0,5.4921407E-1,3.229128E0,0E0,9.430643E-1,2.7495804E0,3.6508121E0,4.679045E0,2.6867552E0,1.4805164E0,2.1348114E0,3.1292558E-1,6.225276E-1,0E0,0E0,0E0,0E0,0E0,0E0,0E0,0E0,0E0,0E0,0E0,0E0,0E0,0E0,0E0,0E0,0E0,0E0,0E0,0E0,0E0,0E0,0E0,0E0,0E0,0E0,0E0,0E0,0E0,0E0,0E0,0E0,0E0,0E0,0E0,0E0,0E0,0E0,0E0,0E0,0E0,0E0,0E0,0E0,0E0,0E0,0E0,0E0,0E0,0E0],"parents":[2147483647,0,0,1,1,2,2,3,3,4,4,5,5,6,6,7,7,8,8,9,9,10,10,11,11,12,12,13,13,14,14,15,15,18,18,19,19,20,20,21,21,22,22,23,23,24,24,25,25,26,26,27,27,28,28,29,29,30,30,31,31,32,32,34,34,35,35,36,36,37,37,38,38,39,39,40,40,41,41,42,42,43,43,45,45,46,46,47,47,48,48,50,50,51,51,52,52,53,53,54,54,55,55,56,56,57,57,58,58],"right_children":[2,4,6,8,10,12,14,16,18,20,22,24,26,28,30,32,-1,-1,34,36,38,40,42,44,46,48,50,52,54,56,58,60,62,-1,64,66,68,70,72,74,76,78,80,82,-1,84,86,88,90,-1,92,94,96,98,100,102,104,106,108,-1,-1,-1,-1,-1,-1,-1,-1,-1,-1,-1,-1,-1,-1,-1,-1,-1,-1,-1,-1,-1,-1,-1,-1,-1,-1,-1,-1,-1,-1,-1,-1,-1,-1,-1,-1,-1,-1,-1,-1,-1,-1,-1,-1,-1,-1,-1,-1,-1,-1],"split_conditions":[4.75E-1,4E-1,7.143E-1,3.8E-1,3.889E-1,8.2E-1,7.5E-1,3.7E-1,3.778E-1,7.6E-1,7E-1,4.167E-1,5.714E-1,5.3E-1,6.667E-1,1.9E-1,-3.53183E-2,8.162134E-2,4.6E-1,3.333E-1,8.6E-1,9.3E-1,8.333E-1,7E-1,5.714E-1,1.25E-1,1.25E-1,3.571E-1,8.1E-1,5.5E-1,3.5E-1,7.14E-2,3.375E-1,5.2816127E-3,5.9E-1,8E-1,7.3E-1,4.1E-1,9.6E-1,3.857E-1,1E0,5.1E-1,3.1E-1,5.375E-1,7.5167805E-2,3.4E-1,5.333E-1,5.5E-1,6.8E-1,4.7111344E-2,7.5E-1,9.1E-1,7.8E-1,4E-1,7E-1,1.6E-1,1.3E-1,5.3E-1,4.3E-1,-1.4716493E-3,2.6437355E-2,5.725813E-2,1.3286791E-2,1.8220691E-2,6.3788794E-2,2.122099E-2,5.273552E-3,-2.8327284E-3,-5.777341E-2,7.391407E-2,4.0495772E-2,-8.062869E-4,6.2030878E-2,2.866798E-2,-6.441807E-3,8.609867E-2,1.3576226E-2,5.8975637E-2,1.1986894E-2,6.070686E-2,8.450049E-2,3.1126205E-2,6.501785E-3,-2.0064112E-2,-4.24152E-3,3.7083175E-2,-6.6334605E-3,-3.2615647E-2,-3.0538419E-3,-4.5117617E-2,3.376153E-2,-1.5313051E-2,3.5030417E-2,-4.7077972E-2,-2.259609E-2,-2.7863234E-2,-6.668207E-4,-1.3690883E-2,1.9925717E-2,-4.4992436E-2,-5.4213116E-3,3.625893E-2,-4.477048E-2,-2.7737886E-2,-6.865268E-2,4.955283E-4,-2.3848407E-2,4.4645343E-2,-2.2148985E-2],"split_indices":[2,3,3,5,4,2,2,5,2,0,4,3,4,0,4,0,0,0,5,2,5,0,4,4,4,3,3,4,5,5,0,4,2,0,0,3,0,5,0,2,0,0,0,2,0,0,2,5,0,0,5,5,5,4,1,5,0,5,0,0,0,0,0,0,0,0,0,0,0,0,0,0,0,0,0,0,0,0,0,0,0,0,0,0,0,0,0,0,0,0,0,0,0,0,0,0,0,0,0,0,0,0,0,0,0,0,0,0,0],"split_type":[0,0,0,0,0,0,0,0,0,0,0,0,0,0,0,0,0,0,0,0,0,0,0,0,0,0,0,0,0,0,0,0,0,0,0,0,0,0,0,0,0,0,0,0,0,0,0,0,0,0,0,0,0,0,0,0,0,0,0,0,0,0,0,0,0,0,0,0,0,0,0,0,0,0,0,0,0,0,0,0,0,0,0,0,0,0,0,0,0,0,0,0,0,0,0,0,0,0,0,0,0,0,0,0,0,0,0,0,0],"sum_hessian":[5.128475E3,2.9200137E3,2.2084617E3,9.4227615E1,2.825786E3,8.579633E2,1.3504984E3,2.0472092E1,7.375552E1,2.1756042E3,6.5018164E2,6.608478E2,1.9711557E2,1.00428076E3,3.4621762E2,1.762119E1,2.850902E0,6.464304E1,9.112484E0,1.9764517E3,1.9915265E2,5.6496765E2,8.521402E1,1.16207985E2,5.446398E2,1.7823851E2,1.8877062E1,5.9262115E2,4.116596E2,3.1665463E2,2.9563002E1,3.8253477E0,1.3795842E1,1.9600365E0,7.1524477E0,1.4834078E3,4.9304382E2,1.4383267E2,5.531998E1,5.422966E2,2.2671076E1,2.4674007E1,6.0540012E1,1.1036136E2,5.8466306E0,5.144907E2,3.0149073E1,3.6341362E1,1.4189714E2,4.3716426E0,1.450542E1,3.6365054E2,2.2897063E2,3.1371848E2,9.794113E1,1.1640506E2,2.0024957E2,2.4386963E1,5.1760373E0,1.6201191E0,2.2052288E0,1.2349069E1,1.4467735E0,2.316235E0,4.8362126E0,6.9260565E2,7.908022E2,4.812445E2,1.1799329E1,2.1937502E1,1.2189517E2,4.5360943E1,9.959035E0,4.9167722E2,5.0619366E1,2.1375738E1,1.2953368E0,1.929873E1,5.375276E0,4.4125652E1,1.6414358E1,7.043958E1,3.9921776E1,1.3232178E2,3.8216895E2,1.6470772E1,1.3678301E1,7.0954294E0,2.9245934E1,1.3719594E2,4.7011986E0,9.83416E0,4.6712594E0,3.063662E2,5.7284325E1,1.5714331E2,7.182732E1,2.6561237E2,4.810612E1,7.543107E1,2.2510056E1,1.5957401E0,1.1480932E2,1.5687577E1,1.84562E2,7.421494E0,1.696547E1,3.9319224E0,1.2441151E0],"tree_param":{"num_deleted":"0","num_feature":"6","num_nodes":"109","size_leaf_vector":"1"}},{"base_weights":[-1.1177665E-9,1.8831918E-1,-2.0239003E-1,1.2125257E-1,3.1787115E-1,-1.2665406E-1,-3.8741526E-1,6.683562E-1,1.0361675E-1,2.7876514E-1,5.9709734E-1,1.5997805E-1,-1.5898648E-1,-4.4329298E-1,8.9223936E-2,9.983588E-2,7.50731E-1,5.419149E-2,2.7727523E-1,1.7940179E-1,4.1401082E-1,6.250324E-1,1.04013555E-1,-6.4656595E-3,2.8068647E-1,-1.21427104E-1,-4.155404E-1,-3.757618E-1,-5.84698E-1,3.0659783E-1,-1.1927594E-1,2.0239457E-1,-2.1078872E-2,7.68415E-2,1.1415739E-2,1.1841123E-1,-7.796439E-2,4.4154626E-1,1.4116722E-1,3.106161E-1,6.334994E-2,6.1427957E-1,3.604448E-1,2.7673972E-1,6.44721E-1,-4.94761E-2,3.858569E-2,-3.0230203E-1,1.5908358E-1,3.667784E-1,3.3083685E-2,-1.5826608E-1,5.948303E-2,-5.2271026E-1,-2.2577184E-1,-3.9544332E-1,1.0467394E-1,-6.513215E-1,-4.8421392E-1,-1.5536724E-1,4.2324084E-1,-5.2058775E-2,-4.826744E-2,-8.275286E-3,2.9056877E-2,2.479268E-2,6.2671206E-3,1.8968424E-2,-1.3930082E-2,1.3561982E-2,4.957628E-2,1.8746883E-3,4.365916E-2,-1.3689599E-3,4.05981E-2,-4.9741636E-3,2.3594297E-2,-1.6724119E-3,6.2608875E-2,3.1214748E-2,6.19334E-2,4.7579262E-2,-2.010634E-3,3.781485E-2,6.7702964E-2,-2.5498081E-2,3.850699E-2,-6.979092E-2,-1.31335035E-2,3.4862213E-2,-2.7599256E-3,-2.9611972E-3,4.033325E-2,6.930593E-2,-8.248867E-3,-2.159389E-2,-4.9427315E-3,1.5779503E-3,3.9045837E-2,-7.712305E-2,-4.617755E-2,2.291469E-2,-3.0967033E-2,-1.6634129E-2,-4.2272013E-2,5.1959764E-2,-1.7224426E-3,-5.0040107E-2,-7.731772E-2,2.4816537E-2,-5.0282028E-2,1.8943852E-2,-2.8626492E-2,5.271625E-2,1.7908903E-2,2.3554092E-2,-1.2405117E-2],"categories":[],"categories_nodes":[],"categories_segments":[],"categories_sizes":[],"default_left":[0,0,0,0,0,0,0,0,0,0,0,0,0,0,0,0,0,0,0,0,0,0,0,0,0,0,0,0,0,0,0,0,0,0,0,0,0,0,0,0,0,0,0,0,0,0,0,0,0,0,0,0,0,0,0,0,0,0,0,0,0,0,0,0,0,0,0,0,0,0,0,0,0,0,0,0,0,0,0,0,0,0,0,0,0,0,0,0,0,0,0,0,0,0,0,0,0,0,0,0,0,0,0,0,0,0,0,0,0,0,0,0,0,0,0,0,0],"id":7,"left_children":[1,3,5,7,9,11,13,15,17,19,21,23,25,27,29,31,33,35,37,39,41,43,45,47,49,51,53,55,57,59,61,63,-1,-1,-1,65,67,69,71,73,75,77,79,81,83,85,-1,87,89,91,93,95,97,99,101,103,105,107,109,111,113,-1,115,-1,-1,-1,-1,-1,-1,-1,-1,-1,-1,-1,-1,-1,-1,-1,-1,-1,-1,-1,-1,-1,-1,-1,-1,-1,-1,-1,-1,-1,-1,-1,-1,-1,-1,-1,-1,-1,-1,-1,-1,-1,-1,-1,-1,-1,-1,-1,-1,-1,-1,-1,-1,-1,-1],"loss_changes":[1.9129166E2,2.255053E1,3.384989E1,1.647481E1,9.510246E0,1.5946785E1,1.8739517E1,2.4240952E0,1.4252638E1,1.0396996E1,1.4224739E0,3.5106177E0,1.4830727E1,5.7830887E0,3.4134078E0,2.945482E-1,4.3523598E-1,1.100202E1,8.166666E0,6.8472834E0,3.3106422E0,5.2103806E-1,3.21463E-1,3.6914563E0,2.1462264E0,8.996735E0,3.8844833E0,4.090664E0,1.0327682E0,2.0464253E0,1.0791047E0,1.863232E-1,0E0,0E0,0E0,6.2800827E0,6.9900446E0,2.6910515E0,7.324342E0,6.543421E0,4.707165E0,5.176277E-1,3.0849838E0,4.35561E-1,5.689888E-1,5.814467E-1,0E0,1.7370193E0,1.7205756E0,1.0991135E0,2.1335192E0,7.0237255E0,3.304422E0,1.5370178E0,2.84914E0,2.5018005E0,9.01327E-1,1.7867546E0,1.2719536E0,4.216892E-1,6.5702343E-1,0E0,7.6105785E-1,0E0,0E0,0E0,0E0,0E0,0E0,0E0,0E0,0E0,0E0,0E0,0E0,0E0,0E0,0E0,0E0,0E0,0E0,0E0,0E0,0E0,0E0,0E0,0E0,0E0,0E0,0E0,0E0,0E0,0E0,0E0,0E0,0E0,0E0,0E0,0E0,0E0,0E0,0E0,0E0,0E0,0E0,0E0,0E0,0E0,0E0,0E0,0E0,0E0,0E0,0E0,0E0,0E0,0E0],"parents":[2147483647,0,0,1,1,2,2,3,3,4,4,5,5,6,6,7,7,8,8,9,9,10,10,11,11,12,12,13,13,14,14,15,15,16,16,17,17,18,18,19,19,20,20,21,21,22,22,23,23,24,24,25,25,26,26,27,27,28,28,29,29,30,30,31,31,35,35,36,36,37,37,38,38,39,39,40,40,41,41,42,42,43,43,44,44,45,45,47,47,48,48,49,49,50,50,51,51,52,52,53,53,54,54,55,55,56,56,57,57,58,58,59,59,60,60,62,62],"right_children":[2,4,6,8,10,12,14,16,18,20,22,24,26,28,30,32,34,36,38,40,42,44,46,48,50,52,54,56,58,60,62,64,-1,-1,-1,66,68,70,72,74,76,78,80,82,84,86,-1,88,90,92,94,96,98,100,102,104,106,108,110,112,114,-1,116,-1,-1,-1,-1,-1,-1,-1,-1,-1,-1,-1,-1,-1,-1,-1,-1,-1,-1,-1,-1,-1,-1,-1,-1,-1,-1,-1,-1,-1,-1,-1,-1,-1,-1,-1,-1,-1,-1,-1,-1,-1,-1,-1,-1,-1,-1,-1,-1,-1,-1,-1,-1,-1,-1],"split_conditions":[4E-1,2.778E-1,1E0,4.167E-1,5.714E-1,4.167E-1,5.714E-1,1.9E-1,6.1E-1,5.3E-1,3.556E-1,7.14E-2,8.333E-1,7.2E-1,5.111E-1,1.875E-1,3.7E-1,2.2E-1,6.5E-1,7.778E-1,1.5E-1,1.2E-1,7E-1,6.9E-1,8.4E-1,7.1E-1,2.778E-1,7.5E-1,1.875E-1,4.286E-1,4.2E-1,2E-1,-2.1078872E-2,7.68415E-2,1.1415739E-2,7.143E-1,4.3E-1,6.3E-1,7E-1,5.1E-1,7.5E-1,5.5E-1,8.3E-1,1.1E-1,3.6E-1,7E-1,3.858569E-2,2E-1,5.111E-1,4E-1,4.286E-1,1E0,9.8E-1,1.5E-1,1.6E-1,4.1E-1,4.111E-1,2E-1,1.1E-1,4.2E-1,7.6E-1,-5.2058775E-2,5.3E-1,-8.275286E-3,2.9056877E-2,2.479268E-2,6.2671206E-3,1.8968424E-2,-1.3930082E-2,1.3561982E-2,4.957628E-2,1.8746883E-3,4.365916E-2,-1.3689599E-3,4.05981E-2,-4.9741636E-3,2.3594297E-2,-1.6724119E-3,6.2608875E-2,3.1214748E-2,6.19334E-2,4.7579262E-2,-2.010634E-3,3.781485E-2,6.7702964E-2,-2.5498081E-2,3.850699E-2,-6.979092E-2,-1.31335035E-2,3.4862213E-2,-2.7599256E-3,-2.9611972E-3,4.033325E-2,6.930593E-2,-8.248867E-3,-2.159389E-2,-4.9427315E-3,1.5779503E-3,3.9045837E-2,-7.712305E-2,-4.617755E-2,2.291469E-2,-3.0967033E-2,-1.6634129E-2,-4.2272013E-2,5.1959764E-2,-1.7224426E-3,-5.0040107E-2,-7.731772E-2,2.4816537E-2,-5.0282028E-2,1.8943852E-2,-2.8626492E-2,5.271625E-2,1.7908903E-2,2.3554092E-2,-1.2405117E-2],"split_indices":[2,4,3,3,4,3,4,5,0,0,2,4,2,2,2,4,2,2,5,3,2,0,5,5,5,0,4,0,4,1,5,0,0,0,0,3,5,0,1,5,5,0,0,0,5,4,0,0,2,1,1,1,0,0,0,5,2,0,0,5,5,0,5,0,0,0,0,0,0,0,0,0,0,0,0,0,0,0,0,0,0,0,0,0,0,0,0,0,0,0,0,0,0,0,0,0,0,0,0,0,0,0,0,0,0,0,0,0,0,0,0,0,0,0,0,0,0],"split_type":[0,0,0,0,0,0,0,0,0,0,0,0,0,0,0,0,0,0,0,0,0,0,0,0,0,0,0,0,0,0,0,0,0,0,0,0,0,0,0,0,0,0,0,0,0,0,0,0,0,0,0,0,0,0,0,0,0,0,0,0,0,0,0,0,0,0,0,0,0,0,0,0,0,0,0,0,0,0,0,0,0,0,0,0,0,0,0,0,0,0,0,0,0,0,0,0,0,0,0,0,0,0,0,0,0,0,0,0,0,0,0,0,0,0,0,0,0],"sum_hessian":[5.0169443E3,2.5988474E3,2.4180972E3,1.713656E3,8.851914E2,1.7169757E3,7.011214E2,5.2362194E1,1.6612937E3,7.782016E2,1.0698984E2,1.7364417E2,1.5433315E3,6.276144E2,7.3506996E1,6.9066978E0,4.5455494E1,1.2942476E3,3.6704614E2,4.4995303E2,3.2824857E2,1.0100019E2,5.989646E0,7.33916E1,1.0025256E2,1.3475275E3,1.9580406E2,4.2723575E2,2.0037866E2,3.5757313E1,3.7749683E1,5.454287E0,1.4524109E0,4.402536E1,1.4301348E0,8.710662E2,4.2318137E2,1.6529945E2,2.0174669E2,2.1039398E2,2.3955907E2,6.706037E1,2.6118817E2,6.2094846E0,9.47907E1,4.411586E0,1.5780598E0,2.603716E1,4.7354443E1,7.403065E1,2.6221912E1,1.1196556E3,2.2787187E2,1.2401397E2,7.17901E1,4.1059235E2,1.6643402E1,1.1719419E2,8.318446E1,7.141476E0,2.8615835E1,4.723425E0,3.302626E1,1.3027604E0,4.1515265E0,2.6105048E2,6.1001575E2,7.85084E1,3.4467294E2,2.5411564E1,1.398879E2,1.4339073E2,5.8355957E1,4.8003998E1,1.6238997E2,1.4515685E2,9.4402214E1,1.2243228E0,6.583605E1,2.2198186E2,3.920633E1,3.3561563E0,2.8533282E0,1.1620059E1,8.317065E1,3.2756815E0,1.1359044E0,6.9268126E0,1.911035E1,2.3067064E1,2.4287378E1,6.2665424E0,6.776411E1,3.162978E0,2.3058933E1,7.312094E2,3.8844617E2,2.0221776E2,2.5654102E1,2.2124277E1,1.01889694E2,1.090877E1,6.0881332E1,4.4439163E1,3.6615317E2,3.038445E0,1.3604958E1,5.4634697E1,6.2559494E1,1.7552924E0,8.142918E1,1.842034E0,5.2994423E0,1.9259146E1,9.35669E0,6.5159826E0,2.6510277E1],"tree_param":{"num_deleted":"0","num_feature":"6","num_nodes":"117","size_leaf_vector":"1"}},{"base_weights":[-6.462607E-10,1.8609306E-1,-1.9919978E-1,3.2452318E-1,1.13940015E-1,-3.5657567E-1,-1.3510078E-1,6.888386E-1,2.8836814E-1,-1.3298807E-2,1.9418862E-1,3.6396325E-2,-3.9980346E-1,2.4837178E-1,-1.566895E-1,1.6229592E-1,7.4183005E-1,2.6372075E-1,6.969253E-1,8.9863814E-2,-8.160183E-2,3.0643404E-1,9.8935224E-2,-4.448057E-2,1.678963E-1,-5.1524115E-1,-2.2971143E-1,3.7752375E-1,2.5863461E-2,-1.0689184E-1,-2.7278197E-1,-2.8909786E-2,2.630703E-1,4.8941916E-1,7.8185074E-2,2.0741984E-1,4.5785254E-1,7.1304876E-1,1.8292457E-2,4.3712884E-2,3.8071233E-1,-1.0060467E-1,4.2836723E-1,2.8166565E-1,5.512529E-1,3.4422582E-1,3.0122414E-2,4.885083E-2,-2.4521233E-1,-1.770684E-1,2.7844653E-1,-6.323231E-1,-4.1734186E-1,1.1595965E-1,-2.9821405E-1,2.9601052E-1,6.514053E-2,-5.685481E-2,4.8046816E-2,-1.1987638E-1,2.3674636E-1,-3.008366E-1,-5.366736E-2,3.617644E-2,-1.0210837E-2,7.066889E-2,2.398063E-2,1.3570818E-2,3.2463443E-2,-1.6398972E-3,5.489054E-2,7.5445294E-2,4.3298777E-2,1.8785661E-2,-4.7634444E-3,4.5224823E-2,-4.847314E-2,-1.4509189E-2,1.4146583E-2,-6.2330896E-3,4.9072023E-2,2.0362733E-2,3.94143E-2,5.6987878E-2,1.5419141E-3,5.1152475E-2,2.5914738E-2,-1.3800686E-3,2.1838613E-2,1.2649215E-2,-2.878561E-2,-3.5841197E-2,2.6086548E-2,-3.6140766E-2,2.7646765E-2,3.29782E-3,4.038557E-2,-4.9876597E-2,-7.196896E-2,-4.3564495E-2,3.4378532E-2,-3.7927233E-2,2.2178296E-2,-2.162236E-2,-5.4955322E-2,1.010473E-2,4.5985915E-2,-2.4216866E-2,5.9080506E-3,-1.3955506E-2,1.1200959E-2,3.9107304E-2,-1.7641785E-2,-2.2706173E-2,-4.816886E-2,-4.998401E-2,-1.521871E-3],"categories":[],"categories_nodes":[],"categories_segments":[],"categories_sizes":[],"default_left":[0,0,0,0,0,0,0,0,0,0,0,0,0,0,0,0,0,0,0,0,0,0,0,0,0,0,0,0,0,0,0,0,0,0,0,0,0,0,0,0,0,0,0,0,0,0,0,0,0,0,0,0,0,0,0,0,0,0,0,0,0,0,0,0,0,0,0,0,0,0,0,0,0,0,0,0,0,0,0,0,0,0,0,0,0,0,0,0,0,0,0,0,0,0,0,0,0,0,0,0,0,0,0,0,0,0,0,0,0,0,0,0,0,0,0,0,0],"id":8,"left_children":[1,3,5,7,9,11,13,15,17,19,21,23,25,27,29,31,33,35,37,39,41,43,45,47,49,51,53,55,57,59,61,-1,63,65,-1,67,69,71,-1,73,75,77,79,81,83,85,87,89,91,93,95,97,99,101,103,105,-1,107,-1,109,111,113,115,-1,-1,-1,-1,-1,-1,-1,-1,-1,-1,-1,-1,-1,-1,-1,-1,-1,-1,-1,-1,-1,-1,-1,-1,-1,-1,-1,-1,-1,-1,-1,-1,-1,-1,-1,-1,-1,-1,-1,-1,-1,-1,-1,-1,-1,-1,-1,-1,-1,-1,-1,-1,-1,-1],"loss_changes":[1.8222414E2,2.534761E1,2.3902382E1,1.1264198E1,1.707713E1,1.1677048E1,1.4019175E1,2.051731E0,7.805687E0,4.5711484E0,1.0934368E1,7.408099E-1,1.2027649E1,2.5878224E0,9.2167015E0,4.580819E-1,3.2899857E-1,8.100998E0,2.3862839E-1,3.4529333E0,3.8245356E0,2.6965027E0,9.37832E0,8.266581E-1,1.0586917E0,3.9506912E0,5.9993114E0,1.0823755E0,1.316035E0,5.029683E0,2.9310875E0,0E0,3.0324996E-1,4.984126E-1,0E0,4.857441E0,7.2529564E0,1.700077E-1,0E0,2.961191E0,2.4026966E0,4.0804405E0,4.6530294E-1,3.6864738E0,4.1202354E-1,1.6005344E0,3.6039624E0,8.3421373E-1,8.936789E-1,6.880678E-1,6.1569846E-1,1.5721741E0,2.9804344E0,2.3052602E0,4.219303E0,1.418241E0,0E0,6.564565E-1,0E0,4.947201E0,2.6925993E0,5.558571E0,9.468126E-1,0E0,0E0,0E0,0E0,0E0,0E0,0E0,0E0,0E0,0E0,0E0,0E0,0E0,0E0,0E0,0E0,0E0,0E0,0E0,0E0,0E0,0E0,0E0,0E0,0E0,0E0,0E0,0E0,0E0,0E0,0E0,0E0,0E0,0E0,0E0,0E0,0E0,0E0,0E0,0E0,0E0,0E0,0E0,0E0,0E0,0E0,0E0,0E0,0E0,0E0,0E0,0E0,0E0,0E0],"parents":[2147483647,0,0,1,1,2,2,3,3,4,4,5,5,6,6,7,7,8,8,9,9,10,10,11,11,12,12,13,13,14,14,15,15,16,16,17,17,18,18,19,19,20,20,21,21,22,22,23,23,24,24,25,25,26,26,27,27,28,28,29,29,30,30,32,32,33,33,35,35,36,36,37,37,39,39,40,40,41,41,42,42,43,43,44,44,45,45,46,46,47,47,48,48,49,49,50,50,51,51,52,52,53,53,54,54,55,55,57,57,59,59,60,60,61,61,62,62],"right_children":[2,4,6,8,10,12,14,16,18,20,22,24,26,28,30,32,34,36,38,40,42,44,46,48,50,52,54,56,58,60,62,-1,64,66,-1,68,70,72,-1,74,76,78,80,82,84,86,88,90,92,94,96,98,100,102,104,106,-1,108,-1,110,112,114,116,-1,-1,-1,-1,-1,-1,-1,-1,-1,-1,-1,-1,-1,-1,-1,-1,-1,-1,-1,-1,-1,-1,-1,-1,-1,-1,-1,-1,-1,-1,-1,-1,-1,-1,-1,-1,-1,-1,-1,-1,-1,-1,-1,-1,-1,-1,-1,-1,-1,-1,-1,-1,-1,-1],"split_conditions":[4E-1,7.5E-1,7.14E-2,4.167E-1,7.14E-2,3.889E-1,4E-1,1.9E-1,7.9E-1,8E-2,2E-1,5.556E-1,3.8E-1,6.833E-1,6.444E-1,1.9E-1,3.8E-1,3.889E-1,5E-1,4.7E-1,7.2E-1,5.714E-1,4.9E-1,8.6E-1,6.3E-1,7E-1,4.4E-1,6.6E-1,8.333E-1,9.4E-1,6.25E-1,-2.8909786E-2,1.875E-1,3.6E-1,7.8185074E-2,7.778E-1,4.2E-1,9.6E-1,1.8292457E-2,2E-1,7E-1,8.8E-1,1.25E-1,4.5E-1,7.3E-1,8.125E-1,6.9E-1,4.9E-1,9.9E-1,2E-1,1.6E-1,5.556E-1,9.9E-1,2.4E-1,6.571E-1,3.889E-1,6.514053E-2,6.3E-1,4.8046816E-2,6.25E-1,8.5E-1,8.75E-1,2.5E-1,3.617644E-2,-1.0210837E-2,7.066889E-2,2.398063E-2,1.3570818E-2,3.2463443E-2,-1.6398972E-3,5.489054E-2,7.5445294E-2,4.3298777E-2,1.8785661E-2,-4.7634444E-3,4.5224823E-2,-4.847314E-2,-1.4509189E-2,1.4146583E-2,-6.2330896E-3,4.9072023E-2,2.0362733E-2,3.94143E-2,5.6987878E-2,1.5419141E-3,5.1152475E-2,2.5914738E-2,-1.3800686E-3,2.1838613E-2,1.2649215E-2,-2.878561E-2,-3.5841197E-2,2.6086548E-2,-3.6140766E-2,2.7646765E-2,3.29782E-3,4.038557E-2,-4.9876597E-2,-7.196896E-2,-4.3564495E-2,3.4378532E-2,-3.7927233E-2,2.2178296E-2,-2.162236E-2,-5.4955322E-2,1.010473E-2,4.5985915E-2,-2.4216866E-2,5.9080506E-3,-1.3955506E-2,1.1200959E-2,3.9107304E-2,-1.7641785E-2,-2.2706173E-2,-4.816886E-2,-4.998401E-2,-1.521871E-3],"split_indices":[2,3,4,3,4,3,3,5,0,2,2,1,0,2,2,0,5,4,4,0,0,4,5,5,5,1,5,0,4,0,4,0,4,5,0,1,5,5,0,0,0,5,2,0,0,3,0,0,5,0,0,3,5,5,2,4,0,5,0,4,5,2,5,0,0,0,0,0,0,0,0,0,0,0,0,0,0,0,0,0,0,0,0,0,0,0,0,0,0,0,0,0,0,0,0,0,0,0,0,0,0,0,0,0,0,0,0,0,0,0,0,0,0,0,0,0,0],"split_type":[0,0,0,0,0,0,0,0,0,0,0,0,0,0,0,0,0,0,0,0,0,0,0,0,0,0,0,0,0,0,0,0,0,0,0,0,0,0,0,0,0,0,0,0,0,0,0,0,0,0,0,0,0,0,0,0,0,0,0,0,0,0,0,0,0,0,0,0,0,0,0,0,0,0,0,0,0,0,0,0,0,0,0,0,0,0,0,0,0,0,0,0,0,0,0,0,0,0,0,0,0,0,0,0,0,0,0,0,0,0,0,0,0,0,0,0,0],"sum_hessian":[4.913717E3,2.5404688E3,2.373248E3,8.6925366E2,1.671215E3,6.8554205E2,1.6877059E3,7.684767E1,7.92406E2,6.466879E2,1.0245271E3,6.79535E1,6.1758856E2,8.939049E1,1.5983156E3,7.3982844E0,6.944939E1,7.488736E2,4.3532433E1,2.574812E2,3.8920676E2,4.6929663E2,5.552304E2,4.2485336E1,2.5468159E1,3.6669302E2,2.5089557E2,5.611982E1,3.3270668E1,1.1198701E3,4.7844543E2,1.0091743E0,6.38911E0,1.1314957E1,5.813443E1,5.821193E2,1.6675424E2,4.183294E1,1.6994929E0,2.232128E2,3.426841E1,3.7599872E2,1.3208017E1,4.281328E2,4.1163826E1,1.2076136E2,4.3446906E2,2.9517595E1,1.2967741E1,6.0349116E0,1.9433249E1,1.6450072E2,2.0219229E2,4.1382515E1,2.0951305E2,4.485174E1,1.1268075E1,2.8889055E1,4.381615E0,1.0797234E3,4.0146717E1,4.238095E2,5.463591E1,5.037116E0,1.3519939E0,5.0704026E0,6.244554E0,3.6250012E2,2.196192E2,2.6990942E1,1.3976329E2,3.4969208E1,6.8637323E0,8.617474E1,1.3703806E2,3.2093098E1,2.1753154E0,3.1796448E2,5.8034233E1,1.4891608E0,1.1718857E1,2.5442188E2,1.7371094E2,3.9719616E1,1.4442115E0,3.9019913E1,8.174145E1,3.5303134E2,8.143772E1,2.4493874E1,5.023721E0,1.0835776E1,2.131965E0,4.435316E0,1.5995959E0,6.998255E0,1.2434993E1,6.770656E1,9.679415E1,1.9786188E2,4.330422E0,6.830961E0,3.4551556E1,1.5938097E2,5.0132084E1,2.1219452E1,2.363229E1,1.0698879E1,1.8190176E1,9.9562885E2,8.409448E1,2.9267921E1,1.0878797E1,3.026182E2,1.2119133E2,3.3826103E0,5.12533E1],"tree_param":{"num_deleted":"0","num_feature":"6","num_nodes":"117","size_leaf_vector":"1"}},{"base_weights":[-1.2291785E-9,1.629271E-1,-2.1884757E-1,1.11863606E-1,3.4166443E-1,1.4459968E-1,-2.4679129E-1,6.0770035E-1,9.744059E-2,2.98975E-1,5.829782E-1,1.0198424E-1,5.6715477E-1,-3.170354E-1,-9.354038E-2,1.8809141E-1,6.6410995E-1,4.375785E-2,2.0384222E-1,3.8053963E-1,1.6658735E-1,6.019086E-1,2.2653344E-1,2.2630404E-1,-5.03227E-3,1.7744526E-1,6.5224403E-1,-3.928555E-1,-1.7172432E-1,9.406337E-2,-1.5113892E-1,-2.820678E-2,2.9029062E-1,7.2978586E-2,3.387507E-1,5.765497E-2,-2.0920423E-1,3.896058E-1,1.23614706E-1,6.0715586E-1,3.165096E-1,-1.4072974E-1,2.555746E-1,6.9741994E-1,5.2436765E-2,-5.624113E-3,3.155926E-1,1.2873577E-1,3.9164302E-1,-2.4350865E-2,1.9299358E-2,2.9426781E-2,-3.5311934E-3,8.678807E-3,7.19512E-2,-3.0354163E-1,-5.6051385E-1,-6.1506394E-2,-2.5617453E-1,2.8153352E-2,4.607782E-1,-6.505914E-2,-2.4697718E-1,3.923296E-2,-9.480688E-3,7.938212E-3,4.289686E-2,1.1061432E-3,1.3110361E-2,5.261006E-2,-2.5809765E-2,5.1834423E-2,2.8088624E-2,4.3654565E-2,6.900327E-3,4.726937E-2,7.015938E-2,2.8797999E-2,7.183893E-2,-2.8245047E-2,5.3800356E-2,3.1072466E-2,-2.023696E-2,2.723287E-2,7.256874E-2,4.853375E-2,4.7273817E-3,-2.3059355E-2,1.6403163E-2,4.8270177E-2,-1.8518059E-2,-1.2618777E-2,7.379322E-3,-1.7834341E-2,-3.7367065E-2,-5.7377752E-2,-2.5183802E-2,-1.3567301E-2,8.0930265E-3,-3.0965373E-2,-9.403903E-3,-3.1353474E-2,8.434377E-3,3.1497136E-3,6.539959E-2,9.882321E-3,-1.3151089E-2,-3.0852607E-2,1.0004254E-2],"categories":[],"categories_nodes":[],"categories_segments":[],"categories_sizes":[],"default_left":[0,0,0,0,0,0,0,0,0,0,0,0,0,0,0,0,0,0,0,0,0,0,0,0,0,0,0,0,0,0,0,0,0,0,0,0,0,0,0,0,0,0,0,0,0,0,0,0,0,0,0,0,0,0,0,0,0,0,0,0,0,0,0,0,0,0,0,0,0,0,0,0,0,0,0,0,0,0,0,0,0,0,0,0,0,0,0,0,0,0,0,0,0,0,0,0,0,0,0,0,0,0,0,0,0,0,0,0,0],"id":9,"left_children":[1,3,5,7,9,11,13,15,17,19,21,23,25,27,29,31,33,35,37,39,41,43,45,47,49,51,53,55,57,59,61,-1,63,-1,65,67,69,71,73,75,77,79,81,83,-1,-1,85,87,89,-1,91,-1,-1,-1,-1,93,95,97,99,101,103,105,107,-1,-1,-1,-1,-1,-1,-1,-1,-1,-1,-1,-1,-1,-1,-1,-1,-1,-1,-1,-1,-1,-1,-1,-1,-1,-1,-1,-1,-1,-1,-1,-1,-1,-1,-1,-1,-1,-1,-1,-1,-1,-1,-1,-1,-1,-1],"loss_changes":[1.7188257E2,2.5182487E1,2.0929054E1,1.5321981E1,6.1461563E0,2.5983975E0,2.0539246E1,1.309557E0,1.1935722E1,5.588066E0,4.7884178E-1,1.8000631E0,3.251052E-1,1.4362854E1,6.5187674E0,4.9399406E-1,8.8586235E-1,4.9027214E0,1.0398809E1,4.495659E0,5.5410695E0,2.7098846E-1,1.739209E-1,9.5898247E-1,4.3200916E-1,1.0375161E-1,3.383956E-1,1.2706284E1,4.180826E0,3.4196043E0,3.7865505E0,0E0,3.3340573E-1,0E0,2.1801484E-1,4.514281E0,2.7481923E0,2.807129E0,8.361185E0,5.5830956E-1,2.705185E0,4.561919E0,4.014303E0,2.2884369E-1,0E0,0E0,1.9873941E-1,5.5579627E-1,1.283361E0,0E0,5.4644924E-1,0E0,0E0,0E0,0E0,4.8784103E0,1.074295E0,2.0911136E0,2.1815586E0,2.358157E0,1.7686086E0,2.6722872E0,4.681691E0,0E0,0E0,0E0,0E0,0E0,0E0,0E0,0E0,0E0,0E0,0E0,0E0,0E0,0E0,0E0,0E0,0E0,0E0,0E0,0E0,0E0,0E0,0E0,0E0,0E0,0E0,0E0,0E0,0E0,0E0,0E0,0E0,0E0,0E0,0E0,0E0,0E0,0E0,0E0,0E0,0E0,0E0,0E0,0E0,0E0,0E0],"parents":[2147483647,0,0,1,1,2,2,3,3,4,4,5,5,6,6,7,7,8,8,9,9,10,10,11,11,12,12,13,13,14,14,15,15,16,16,17,17,18,18,19,19,20,20,21,21,22,22,23,23,24,24,25,25,26,26,27,27,28,28,29,29,30,30,32,32,34,34,35,35,36,36,37,37,38,38,39,39,40,40,41,41,42,42,43,43,46,46,47,47,48,48,50,50,55,55,56,56,57,57,58,58,59,59,60,60,61,61,62,62],"right_children":[2,4,6,8,10,12,14,16,18,20,22,24,26,28,30,32,34,36,38,40,42,44,46,48,50,52,54,56,58,60,62,-1,64,-1,66,68,70,72,74,76,78,80,82,84,-1,-1,86,88,90,-1,92,-1,-1,-1,-1,94,96,98,100,102,104,106,108,-1,-1,-1,-1,-1,-1,-1,-1,-1,-1,-1,-1,-1,-1,-1,-1,-1,-1,-1,-1,-1,-1,-1,-1,-1,-1,-1,-1,-1,-1,-1,-1,-1,-1,-1,-1,-1,-1,-1,-1,-1,-1,-1,-1,-1,-1],"split_conditions":[4.875E-1,3.889E-1,4.167E-1,4E-1,6.667E-1,6.25E-1,5.6E-1,1.9E-1,5.8E-1,9.444E-1,3.5E-1,5.375E-1,3.8E-1,3.889E-1,4.8E-1,1.9E-1,3.7E-1,3.778E-1,2.333E-1,8E-2,5.6E-1,6.875E-1,3.3E-1,3.3E-1,1.3E-1,1.8E-1,1.6E-1,6.833E-1,8.571E-1,7.8E-1,8.125E-1,-2.820678E-2,1.875E-1,7.2978586E-2,7E-1,7.778E-1,2.3E-1,6.5E-1,6.111E-1,6E-1,9.3E-1,4.7E-1,4.9E-1,1.2E-1,5.2436765E-2,-5.624113E-3,3.6E-1,3.5E-1,6.7E-1,-2.4350865E-2,5.556E-1,2.9426781E-2,-3.5311934E-3,8.678807E-3,7.19512E-2,7.143E-1,9.8E-1,7.9E-1,5.714E-1,2.3E-1,5.4E-1,6.2E-1,8.4E-1,3.923296E-2,-9.480688E-3,7.938212E-3,4.289686E-2,1.1061432E-3,1.3110361E-2,5.261006E-2,-2.5809765E-2,5.1834423E-2,2.8088624E-2,4.3654565E-2,6.900327E-3,4.726937E-2,7.015938E-2,2.8797999E-2,7.183893E-2,-2.8245047E-2,5.3800356E-2,3.1072466E-2,-2.023696E-2,2.723287E-2,7.256874E-2,4.853375E-2,4.7273817E-3,-2.3059355E-2,1.6403163E-2,4.8270177E-2,-1.8518059E-2,-1.2618777E-2,7.379322E-3,-1.7834341E-2,-3.7367065E-2,-5.7377752E-2,-2.5183802E-2,-1.3567301E-2,8.0930265E-3,-3.0965373E-2,-9.403903E-3,-3.1353474E-2,8.434377E-3,3.1497136E-3,6.539959E-2,9.882321E-3,-1.3151089E-2,-3.0852607E-2,1.0004254E-2],"split_indices":[2,4,3,3,4,4,0,5,0,3,2,2,5,4,5,0,2,2,2,2,5,3,0,0,0,5,0,2,3,0,3,0,4,0,1,1,5,5,3,5,0,0,0,0,0,0,0,5,0,0,2,0,0,0,0,3,5,5,4,5,2,0,0,0,0,0,0,0,0,0,0,0,0,0,0,0,0,0,0,0,0,0,0,0,0,0,0,0,0,0,0,0,0,0,0,0,0,0,0,0,0,0,0,0,0,0,0,0,0],"split_type":[0,0,0,0,0,0,0,0,0,0,0,0,0,0,0,0,0,0,0,0,0,0,0,0,0,0,0,0,0,0,0,0,0,0,0,0,0,0,0,0,0,0,0,0,0,0,0,0,0,0,0,0,0,0,0,0,0,0,0,0,0,0,0,0,0,0,0,0,0,0,0,0,0,0,0,0,0,0,0,0,0,0,0,0,0,0,0,0,0,0,0,0,0,0,0,0,0,0,0,0,0,0,0,0,0,0,0,0,0],"sum_hessian":[4.818552E3,2.762321E3,2.0562305E3,2.1497769E3,6.1254425E2,1.4650842E2,1.909722E3,5.9602936E1,2.0901738E3,5.2237317E2,9.017111E1,1.3421405E2,1.2294374E1,1.3087667E3,6.009553E2,7.5767565E0,5.202618E1,1.3901924E3,6.999815E2,3.2206995E2,2.003032E2,8.49698E1,5.2013073E0,6.157197E1,7.264208E1,2.756228E0,9.538147E0,8.589056E2,4.498612E2,1.4101698E2,4.5993835E2,1.0386324E0,6.538124E0,4.225393E1,9.772251E0,1.3185277E3,7.166463E1,2.0996346E2,4.9001807E2,6.908407E1,2.5298587E2,4.4846077E1,1.5545714E2,3.4491093E1,5.0478714E1,1.3340425E0,3.8672647E0,3.9840366E1,2.1731604E1,5.8914614E0,6.6750626E1,1.531941E0,1.2242868E0,1.2575287E0,8.280618E0,5.62216E2,2.9668954E2,1.959069E2,2.539543E2,1.2044589E2,2.0571089E1,2.4318967E2,2.1674869E2,5.153757E0,1.3843668E0,3.0070724E0,6.7651787E0,8.0745435E2,5.1107336E2,3.8596387E0,6.7804985E1,9.440621E1,1.1555725E2,7.177038E1,4.1824768E2,3.0979847E1,3.8104225E1,2.3781955E2,1.5166322E1,3.7582615E1,7.2634606E0,1.3903473E2,1.6422411E1,2.8135953E0,3.1677496E1,1.8733373E0,1.9939274E0,3.0684872E0,3.677188E1,1.8909653E1,2.821951E0,1.783072E1,4.8919903E1,2.0312643E2,3.5908957E2,2.8364273E2,1.3046822E1,1.2885811E2,6.704879E1,1.9028151E2,6.3672794E1,1.6363188E1,1.0408271E2,6.746058E0,1.3825031E1,7.002006E1,1.7316962E2,1.8419077E2,3.255793E1],"tree_param":{"num_deleted":"0","num_feature":"6","num_nodes":"109","size_leaf_vector":"1"}},{"base_weights":[-1.1936072E-9,1.8338981E-1,-1.9426186E-1,2.8271082E-1,8.586559E-2,-3.4139633E-1,-1.3484067E-1,2.3727793E-1,4.8944348E-1,1.8262874E-2,2.286356E-1,-2.4258149E-1,-5.139227E-1,9.110101E-3,-1.7733069E-1,6.3511103E-1,2.056556E-1,-5.786968E-2,5.050963E-1,8.378393E-3,5.479793E-1,1.8868788E-1,5.182566E-1,-1.4715974E-1,-4.237536E-1,-6.2893754E-1,-4.3179545E-1,-4.4504758E-2,3.955332E-1,-2.4882413E-1,-4.217853E-2,2.7166465E-1,7.509527E-2,1.6125719E-1,3.638111E-1,5.932491E-1,3.4783828E-1,1.0826297E-1,-4.286318E-2,6.202987E-1,4.7866325E-3,1.2834036E-1,4.1890776E-1,3.8298324E-1,5.708312E-1,-2.1910691E-1,-3.7047702E-3,1.1392921E-2,-4.822395E-1,-5.257756E-1,-7.932579E-2,-4.6543947E-1,-1.683645E-1,1.3311654E-1,-9.505246E-2,5.5394584E-1,1.791417E-1,-3.921346E-1,-2.141883E-1,8.706901E-2,-1.559974E-1,4.0643148E-2,-2.292255E-3,2.3851765E-2,6.805473E-3,3.252316E-2,6.2868714E-2,6.096837E-2,2.2915028E-2,5.2435167E-2,1.4915503E-2,-3.056917E-3,2.0038417E-2,6.102433E-3,-8.3645275E-3,7.2808214E-3,7.226293E-2,2.5753768E-3,2.9671377E-2,5.2378487E-2,6.3890116E-3,6.7181066E-2,2.1996632E-2,6.9297165E-2,4.4431195E-2,-5.1415827E-2,-1.918841E-2,9.010035E-3,-3.450725E-2,-1.2196246E-2,3.338939E-2,-7.294338E-2,-4.260629E-2,6.1451723E-3,-5.4722127E-2,-1.921195E-2,-4.976867E-2,-5.834132E-3,-4.3707374E-2,7.6935003E-3,5.45741E-2,-5.287701E-3,-3.8126454E-2,6.4013414E-2,2.8230174E-2,3.6639262E-2,7.765489E-3,2.0213386E-2,-4.1476663E-2,-1.4265463E-2,-2.6715642E-2,5.8474264E-4,2.9675705E-2,-4.9601976E-2,-1.2327078E-2],"categories":[],"categories_nodes":[],"categories_segments":[],"categories_sizes":[],"default_left":[0,0,0,0,0,0,0,0,0,0,0,0,0,0,0,0,0,0,0,0,0,0,0,0,0,0,0,0,0,0,0,0,0,0,0,0,0,0,0,0,0,0,0,0,0,0,0,0,0,0,0,0,0,0,0,0,0,0,0,0,0,0,0,0,0,0,0,0,0,0,0,0,0,0,0,0,0,0,0,0,0,0,0,0,0,0,0,0,0,0,0,0,0,0,0,0,0,0,0,0,0,0,0,0,0,0,0,0,0,0,0,0,0,0,0],"id":10,"left_children":[1,3,5,7,9,11,13,15,17,19,21,23,25,27,29,31,33,-1,35,37,39,41,43,45,47,49,51,53,55,57,59,61,-1,63,65,67,69,71,73,75,-1,77,79,81,83,85,87,89,91,93,-1,95,97,99,101,103,105,107,109,111,113,-1,-1,-1,-1,-1,-1,-1,-1,-1,-1,-1,-1,-1,-1,-1,-1,-1,-1,-1,-1,-1,-1,-1,-1,-1,-1,-1,-1,-1,-1,-1,-1,-1,-1,-1,-1,-1,-1,-1,-1,-1,-1,-1,-1,-1,-1,-1,-1,-1,-1,-1,-1,-1,-1],"loss_changes":[1.6875046E2,2.357682E1,2.0064407E1,1.1218002E1,1.1875449E1,1.1145218E1,1.0033487E1,1.2339722E1,3.9116516E0,4.374774E0,4.477337E0,7.2367973E0,1.9939766E0,7.78149E0,1.22260895E1,2.8488407E0,6.3996162E0,0E0,2.7586632E0,4.212317E0,5.2388525E-1,4.7960835E0,1.1819935E-1,2.869382E0,3.6989765E0,1.2395515E0,1.1900826E0,2.9753342E0,1.4693813E0,4.026222E0,6.4766617E0,7.6728916E-1,0E0,5.167925E0,1.8475094E0,6.7191696E-1,2.7009478E0,3.5747056E0,2.3101811E0,6.9187164E-1,0E0,4.794598E0,2.6495008E0,6.193943E-1,1.8762302E-1,1.3887758E0,3.0380318E0,8.2223815E-1,1.4660778E0,8.27034E-1,0E0,1.0179577E0,5.0000805E-1,1.6623279E0,3.0876877E0,4.2664385E-1,3.6717522E-1,2.2353687E0,2.4970627E0,3.512979E0,2.5424566E0,0E0,0E0,0E0,0E0,0E0,0E0,0E0,0E0,0E0,0E0,0E0,0E0,0E0,0E0,0E0,0E0,0E0,0E0,0E0,0E0,0E0,0E0,0E0,0E0,0E0,0E0,0E0,0E0,0E0,0E0,0E0,0E0,0E0,0E0,0E0,0E0,0E0,0E0,0E0,0E0,0E0,0E0,0E0,0E0,0E0,0E0,0E0,0E0,0E0,0E0,0E0,0E0,0E0,0E0],"parents":[2147483647,0,0,1,1,2,2,3,3,4,4,5,5,6,6,7,7,8,8,9,9,10,10,11,11,12,12,13,13,14,14,15,15,16,16,18,18,19,19,20,20,21,21,22,22,23,23,24,24,25,25,26,26,27,27,28,28,29,29,30,30,31,31,33,33,34,34,35,35,36,36,37,37,38,38,39,39,41,41,42,42,43,43,44,44,45,45,46,46,47,47,48,48,49,49,51,51,52,52,53,53,54,54,55,55,56,56,57,57,58,58,59,59,60,60],"right_children":[2,4,6,8,10,12,14,16,18,20,22,24,26,28,30,32,34,-1,36,38,40,42,44,46,48,50,52,54,56,58,60,62,-1,64,66,68,70,72,74,76,-1,78,80,82,84,86,88,90,92,94,-1,96,98,100,102,104,106,108,110,112,114,-1,-1,-1,-1,-1,-1,-1,-1,-1,-1,-1,-1,-1,-1,-1,-1,-1,-1,-1,-1,-1,-1,-1,-1,-1,-1,-1,-1,-1,-1,-1,-1,-1,-1,-1,-1,-1,-1,-1,-1,-1,-1,-1,-1,-1,-1,-1,-1,-1,-1,-1,-1,-1,-1],"split_conditions":[4E-1,8.333E-1,7.14E-2,6.5E-1,3.125E-1,1E0,6.111E-1,5E-1,5E-1,9.4E-1,5.714E-1,6.571E-1,6E-1,5.714E-1,6.2E-1,3.8E-1,3.889E-1,-5.786968E-2,7.7E-1,8E-2,3.25E-1,6.2E-1,4.7E-1,7.8E-1,1.25E-1,7.667E-1,4.6E-1,4E-1,6.4E-1,2.143E-1,6.2E-1,2.556E-1,7.509527E-2,2.222E-1,5.6E-1,3.714E-1,3E-1,2.5E-1,9E-1,1.25E-1,4.7866325E-3,7.778E-1,8.3E-1,3.5E-1,7.4E-1,4.286E-1,7.778E-1,2.8E-1,1.5E-1,2.5E-1,-7.932579E-2,4.1E-1,7.9E-1,6.6E-1,8.75E-1,3.7E-1,3.75E-1,2E-1,5.111E-1,7.778E-1,4.111E-1,4.0643148E-2,-2.292255E-3,2.3851765E-2,6.805473E-3,3.252316E-2,6.2868714E-2,6.096837E-2,2.2915028E-2,5.2435167E-2,1.4915503E-2,-3.056917E-3,2.0038417E-2,6.102433E-3,-8.3645275E-3,7.2808214E-3,7.226293E-2,2.5753768E-3,2.9671377E-2,5.2378487E-2,6.3890116E-3,6.7181066E-2,2.1996632E-2,6.9297165E-2,4.4431195E-2,-5.1415827E-2,-1.918841E-2,9.010035E-3,-3.450725E-2,-1.2196246E-2,3.338939E-2,-7.294338E-2,-4.260629E-2,6.1451723E-3,-5.4722127E-2,-1.921195E-2,-4.976867E-2,-5.834132E-3,-4.3707374E-2,7.6935003E-3,5.45741E-2,-5.287701E-3,-3.8126454E-2,6.4013414E-2,2.8230174E-2,3.6639262E-2,7.765489E-3,2.0213386E-2,-4.1476663E-2,-1.4265463E-2,-2.6715642E-2,5.8474264E-4,2.9675705E-2,-4.9601976E-2,-1.2327078E-2],"split_indices":[2,3,4,0,4,3,3,3,1,0,4,2,1,4,0,5,4,0,5,2,2,0,5,5,3,2,0,3,2,4,5,2,0,2,0,2,2,0,3,2,0,1,5,5,5,1,3,0,0,5,0,5,5,0,2,0,3,5,2,1,2,0,0,0,0,0,0,0,0,0,0,0,0,0,0,0,0,0,0,0,0,0,0,0,0,0,0,0,0,0,0,0,0,0,0,0,0,0,0,0,0,0,0,0,0,0,0,0,0,0,0,0,0,0,0],"split_type":[0,0,0,0,0,0,0,0,0,0,0,0,0,0,0,0,0,0,0,0,0,0,0,0,0,0,0,0,0,0,0,0,0,0,0,0,0,0,0,0,0,0,0,0,0,0,0,0,0,0,0,0,0,0,0,0,0,0,0,0,0,0,0,0,0,0,0,0,0,0,0,0,0,0,0,0,0,0,0,0,0,0,0,0,0,0,0,0,0,0,0,0,0,0,0,0,0,0,0,0,0,0,0,0,0,0,0,0,0,0,0,0,0,0,0],"sum_hessian":[4.7347686E3,2.435567E3,2.299202E3,1.2057268E3,1.22984E3,6.600612E2,1.6391407E3,9.902506E2,2.1547617E2,8.3539966E2,3.9444034E2,4.2121524E2,2.3884593E2,3.7374072E2,1.2654E3,7.15104E1,9.1874023E2,2.5925293E0,2.1288364E2,8.2109393E2,1.4305754E1,3.4808072E2,4.6359623E1,2.770878E2,1.4412744E2,9.672688E1,1.4211905E2,3.2898065E2,4.4760086E1,8.2705786E2,4.3834216E2,1.8092236E1,5.3418167E1,7.189356E2,1.9980458E2,1.3463817E2,7.824545E1,2.780268E2,5.430671E2,1.2288451E1,2.0173025E0,2.7702237E2,7.1058365E1,1.5293735E1,3.1065886E1,1.8418558E2,9.290223E1,1.7171722E1,1.2695573E2,6.200145E1,3.4725433E1,1.2534395E2,1.6775103E1,7.251926E1,2.564614E2,2.4941422E1,1.9818666E1,1.5897124E2,6.680866E2,2.0536922E2,2.3297295E2,1.2152901E1,5.939335E0,3.9223343E2,3.267022E2,1.7634726E2,2.3457327E1,1.2817802E2,6.460156E0,4.056645E1,3.767901E1,1.1116408E2,1.6686273E2,1.5294972E2,3.901174E2,2.2046423E0,1.0083809E1,1.7285696E2,1.04165405E2,5.4486824E1,1.6571537E1,4.391654E0,1.0902081E1,1.352845E1,1.7537437E1,1.4047404E1,1.7013817E2,7.345377E1,1.944845E1,1.2588255E1,4.583468E0,2.1289736E1,1.0566599E2,2.1187942E0,5.9882656E1,1.3962117E1,1.11381836E2,1.2765412E1,4.00969E0,6.487284E1,7.646414E0,2.2455614E2,3.1905247E1,1.7904196E1,7.037225E0,6.04849E0,1.3770176E1,5.5411477E0,1.534301E2,2.858024E2,3.822842E2,1.487713E2,5.6597916E1,1.9211658E1,2.1376129E2],"tree_param":{"num_deleted":"0","num_feature":"6","num_nodes":"115","size_leaf_vector":"1"}},{"base_weights":[-2.5814614E-10,1.7482832E-1,-1.8488644E-1,2.980501E-1,1.11636914E-1,1.8007794E-1,-2.1197717E-1,6.44508E-1,2.6431215E-1,5.154006E-2,2.3167205E-1,3.1559822E-1,4.2598676E-2,-3.7697378E-1,-1.4903428E-1,3.4161082E-1,7.414302E-2,1.6096391E-1,3.8278228E-1,2.4199985E-2,3.4526286E-1,1.9453919E-1,5.258381E-1,2.0404121E-1,5.1132053E-1,-5.46769E-3,4.330317E-1,-2.929149E-1,-5.3289133E-1,-1.7317255E-1,8.819159E-2,1.4224958E-1,4.2738846E-1,-3.2279212E-2,2.4534571E-1,6.1600477E-1,3.233608E-1,9.998629E-2,-1.4594261E-2,4.121059E-1,-6.136022E-2,2.7402243E-1,9.232984E-2,3.8191268E-1,5.6497425E-2,2.3408042E-1,-2.1203184E-1,5.5813926E-1,1.9269446E-2,-4.3246403E-2,2.7671924E-1,1.3565145E-3,5.458113E-1,-2.404108E-1,-3.892235E-1,-6.655127E-1,-4.4388694E-1,-1.915323E-1,1.7140476E-1,4.4523856E-1,-7.904268E-2,2.522851E-2,-8.381535E-3,1.2095246E-2,5.095125E-2,-2.32105E-2,1.6780388E-2,3.544663E-2,1.3592004E-2,6.782364E-2,3.234482E-2,1.0074196E-2,4.2404383E-2,4.8969076E-3,3.245369E-2,1.8893009E-2,-3.6426384E-3,4.545619E-2,-1.1601853E-2,-1.9373853E-2,4.7389027E-2,1.3822603E-2,4.0601127E-2,2.2046508E-2,-7.0686312E-3,4.4306543E-2,-3.0280862E-3,4.519368E-2,1.8899383E-2,1.1570327E-2,-4.3327875E-2,3.3520892E-2,6.0459305E-2,-6.9028544E-3,1.0160839E-2,-9.8418025E-3,4.822724E-3,7.6610753E-3,3.0687097E-2,1.9458352E-2,5.9584916E-2,-2.4970429E-2,2.0051844E-2,-4.470035E-2,-3.0442927E-2,-2.4954282E-2,-7.1139954E-2,-6.227873E-2,-3.4648437E-2,-1.6219303E-2,-4.7538612E-2,2.9312173E-2,6.16263E-3,6.764228E-2,2.1778835E-2,-1.9261904E-2,1.050943E-2],"categories":[],"categories_nodes":[],"categories_segments":[],"categories_sizes":[],"default_left":[0,0,0,0,0,0,0,0,0,0,0,0,0,0,0,0,0,0,0,0,0,0,0,0,0,0,0,0,0,0,0,0,0,0,0,0,0,0,0,0,0,0,0,0,0,0,0,0,0,0,0,0,0,0,0,0,0,0,0,0,0,0,0,0,0,0,0,0,0,0,0,0,0,0,0,0,0,0,0,0,0,0,0,0,0,0,0,0,0,0,0,0,0,0,0,0,0,0,0,0,0,0,0,0,0,0,0,0,0,0,0,0,0,0,0,0,0],"id":11,"left_children":[1,3,5,7,9,11,13,15,17,19,21,23,25,27,29,31,-1,33,35,37,39,41,43,45,47,49,51,53,55,57,59,61,63,65,67,69,71,73,75,77,79,81,83,85,-1,87,89,91,93,95,97,-1,99,101,103,105,107,109,111,113,115,-1,-1,-1,-1,-1,-1,-1,-1,-1,-1,-1,-1,-1,-1,-1,-1,-1,-1,-1,-1,-1,-1,-1,-1,-1,-1,-1,-1,-1,-1,-1,-1,-1,-1,-1,-1,-1,-1,-1,-1,-1,-1,-1,-1,-1,-1,-1,-1,-1,-1,-1,-1,-1,-1,-1,-1],"loss_changes":[1.5027145E2,1.8572685E1,2.2378235E1,9.290619E0,1.1393627E1,2.905527E0,2.1792908E1,1.834919E0,8.989853E0,8.462779E0,5.656515E0,1.6149268E0,1.4836107E0,7.4494095E0,8.74511E0,2.6578426E-1,0E0,6.4743547E0,4.5641327E0,2.8419502E0,2.4647675E0,3.7905464E0,1.137619E-1,6.9728804E-1,6.3251066E-1,7.716989E-1,4.0248275E-1,1.8241425E0,2.089508E0,8.788986E0,8.481908E0,2.0133895E-1,2.6184225E-1,4.893363E0,3.2491817E0,1.0311432E0,6.1441383E0,3.732904E0,2.8501658E0,1.7839775E0,1.0513059E0,4.670677E0,4.3391104E0,4.064796E-1,0E0,3.9396572E-1,3.4118462E-1,6.100893E-2,3.218235E-2,3.2630247E-1,2.8074741E-2,0E0,3.6172867E-3,1.0665569E0,5.115833E-1,1.3330231E0,1.9433403E0,1.0870411E1,9.24531E-1,2.2333097E0,2.0527816E0,0E0,0E0,0E0,0E0,0E0,0E0,0E0,0E0,0E0,0E0,0E0,0E0,0E0,0E0,0E0,0E0,0E0,0E0,0E0,0E0,0E0,0E0,0E0,0E0,0E0,0E0,0E0,0E0,0E0,0E0,0E0,0E0,0E0,0E0,0E0,0E0,0E0,0E0,0E0,0E0,0E0,0E0,0E0,0E0,0E0,0E0,0E0,0E0,0E0,0E0,0E0,0E0,0E0,0E0,0E0,0E0],"parents":[2147483647,0,0,1,1,2,2,3,3,4,4,5,5,6,6,7,7,8,8,9,9,10,10,11,11,12,12,13,13,14,14,15,15,17,17,18,18,19,19,20,20,21,21,22,22,23,23,24,24,25,25,26,26,27,27,28,28,29,29,30,30,31,31,32,32,33,33,34,34,35,35,36,36,37,37,38,38,39,39,40,40,41,41,42,42,43,43,45,45,46,46,47,47,48,48,49,49,50,50,52,52,53,53,54,54,55,55,56,56,57,57,58,58,59,59,60,60],"right_children":[2,4,6,8,10,12,14,16,18,20,22,24,26,28,30,32,-1,34,36,38,40,42,44,46,48,50,52,54,56,58,60,62,64,66,68,70,72,74,76,78,80,82,84,86,-1,88,90,92,94,96,98,-1,100,102,104,106,108,110,112,114,116,-1,-1,-1,-1,-1,-1,-1,-1,-1,-1,-1,-1,-1,-1,-1,-1,-1,-1,-1,-1,-1,-1,-1,-1,-1,-1,-1,-1,-1,-1,-1,-1,-1,-1,-1,-1,-1,-1,-1,-1,-1,-1,-1,-1,-1,-1,-1,-1,-1,-1,-1,-1,-1,-1,-1,-1],"split_conditions":[4E-1,7.5E-1,4.167E-1,4.167E-1,2.778E-1,5.375E-1,7.14E-2,3.8E-1,1.875E-1,6.9E-1,5.714E-1,2.778E-1,6.25E-1,7.2E-1,8E-1,2.2E-1,7.414302E-2,5.6E-1,8E-2,8E-2,9E-1,2.222E-1,4.3E-1,4E-1,6.7E-1,3.75E-1,3.8E-1,1E0,5.556E-1,1E0,5.5E-1,2E-1,1.7E-1,3.9E-1,1.571E-1,8.6E-1,4.2E-1,4.8E-1,1.8E-1,3.75E-1,9.4E-1,3.2E-1,7.1E-1,4.2E-1,5.6497425E-2,4E-1,5.3E-1,2.2E-1,7E-1,2.778E-1,5.5E-1,1.3565145E-3,1.9E-1,6.833E-1,7.778E-1,3.5E-1,1.5E-1,8.75E-1,7.2E-1,2.5E-1,2.778E-1,2.522851E-2,-8.381535E-3,1.2095246E-2,5.095125E-2,-2.32105E-2,1.6780388E-2,3.544663E-2,1.3592004E-2,6.782364E-2,3.234482E-2,1.0074196E-2,4.2404383E-2,4.8969076E-3,3.245369E-2,1.8893009E-2,-3.6426384E-3,4.545619E-2,-1.1601853E-2,-1.9373853E-2,4.7389027E-2,1.3822603E-2,4.0601127E-2,2.2046508E-2,-7.0686312E-3,4.4306543E-2,-3.0280862E-3,4.519368E-2,1.8899383E-2,1.1570327E-2,-4.3327875E-2,3.3520892E-2,6.0459305E-2,-6.9028544E-3,1.0160839E-2,-9.8418025E-3,4.822724E-3,7.6610753E-3,3.0687097E-2,1.9458352E-2,5.9584916E-2,-2.4970429E-2,2.0051844E-2,-4.470035E-2,-3.0442927E-2,-2.4954282E-2,-7.1139954E-2,-6.227873E-2,-3.4648437E-2,-1.6219303E-2,-4.7538612E-2,2.9312173E-2,6.16263E-3,6.764228E-2,2.1778835E-2,-1.9261904E-2,1.050943E-2],"split_indices":[2,3,3,3,4,2,4,5,4,0,4,4,4,2,0,0,0,5,2,2,5,2,5,3,0,3,5,3,1,4,5,0,5,0,2,5,0,0,0,2,0,0,5,5,0,1,0,0,0,4,2,0,0,2,1,5,0,2,2,4,4,0,0,0,0,0,0,0,0,0,0,0,0,0,0,0,0,0,0,0,0,0,0,0,0,0,0,0,0,0,0,0,0,0,0,0,0,0,0,0,0,0,0,0,0,0,0,0,0,0,0,0,0,0,0,0,0],"split_type":[0,0,0,0,0,0,0,0,0,0,0,0,0,0,0,0,0,0,0,0,0,0,0,0,0,0,0,0,0,0,0,0,0,0,0,0,0,0,0,0,0,0,0,0,0,0,0,0,0,0,0,0,0,0,0,0,0,0,0,0,0,0,0,0,0,0,0,0,0,0,0,0,0,0,0,0,0,0,0,0,0,0,0,0,0,0,0,0,0,0,0,0,0,0,0,0,0,0,0,0,0,0,0,0,0,0,0,0,0,0,0,0,0,0,0,0,0],"sum_hessian":[4.6470015E3,2.388497E3,2.2585044E3,8.0840643E2,1.5800906E3,1.5567087E2,2.1028337E3,7.013017E1,7.3827625E2,1.0538826E3,5.2620795E2,7.7741516E1,7.7929344E1,5.7929584E2,1.5235377E3,1.8097437E1,5.203274E1,3.955629E2,3.4271338E2,9.651295E2,8.8753044E1,4.687043E2,5.7503666E1,5.0818626E1,2.692289E1,7.026499E1,7.6643553E0,3.7825058E2,2.0104526E2,1.3830767E3,1.4046115E2,6.2439137E0,1.1853523E1,1.2041575E2,2.7514716E2,6.768617E1,2.750272E2,3.262358E2,6.388937E2,7.621148E1,1.2541565E1,2.6271927E2,2.0598503E2,1.4593566E1,4.29101E1,4.780468E1,3.013947E0,2.44611E1,2.46179E0,6.2715492E1,7.5494995E0,1.8614086E0,5.8029466E0,2.470589E2,1.311917E2,7.813806E1,1.22907196E2,1.3135332E3,6.954347E1,4.4273785E1,9.618737E1,4.1217136E0,2.1222003E0,3.027938E0,8.825584E0,6.016654E1,6.024921E1,1.3664441E2,1.3850273E2,5.4726604E1,1.2959572E1,8.6272285E1,1.887549E2,2.6683075E2,5.940506E1,6.1153374E1,5.777403E2,7.066963E1,5.5418525E0,1.0566338E1,1.9752281E0,1.3050093E2,1.3221835E2,1.1513404E2,9.085098E1,1.2642968E1,1.9505973E0,6.64973E0,4.115495E1,1.4069133E0,1.6070336E0,5.634978E0,1.8826122E1,1.2659136E0,1.1958766E0,3.9073E1,2.3642492E1,1.4522392E0,6.0972605E0,1.3332528E0,4.469694E0,2.4238387E2,4.675044E0,7.548409E1,5.5707592E1,8.402914E0,6.973515E1,4.1425873E1,8.148132E1,1.1919083E3,1.2162482E2,3.218652E1,3.735695E1,2.097773E1,2.3296057E1,5.9463814E1,3.672356E1],"tree_param":{"num_deleted":"0","num_feature":"6","num_nodes":"117","size_leaf_vector":"1"}},{"base_weights":[-1.0673427E-10,1.7837144E-1,-1.855361E-1,2.4214333E-1,6.731507E-2,-1.2940422E-1,-3.6459643E-1,1.974115E-1,4.1485578E-1,1.2439054E-2,2.2133783E-1,2.0014606E-1,-1.4898574E-1,-4.860705E-1,-2.5642225E-1,6.0183764E-1,1.7984861E-1,3.5941744E-1,5.4020596E-1,-3.653379E-2,1.03824235E-1,3.8858825E-1,8.6149074E-2,1.11702435E-1,4.3290877E-1,-2.2752291E-1,-6.60544E-2,-7.086636E-2,-5.197328E-1,-3.0297238E-1,-2.0119559E-2,1.6146158E-1,6.7137015E-1,1.2174565E-1,3.1122223E-1,4.4985354E-1,1.8816705E-1,5.7379985E-1,-9.002539E-2,-1.3324432E-1,6.8065976E-3,3.984817E-2,2.9920232E-1,2.8184986E-1,6.6372705E-1,1.4667945E-2,4.5217848E-1,7.312944E-2,4.7824687E-1,3.46202E-1,6.704363E-2,-2.9219812E-1,-1.0757928E-1,-1.0003681E-1,1.2234341E-1,-1.60259E-1,1.9113036E-1,-4.3546188E-1,-6.229258E-1,-2.1150936E-1,-4.2723864E-1,4.2011563E-2,-6.611491E-2,2.078568E-2,-4.8813606E-3,6.9569096E-2,1.0010156E-2,1.6058853E-2,-4.840582E-3,5.1367432E-2,2.5055528E-2,1.9971011E-2,5.2215904E-2,6.5130466E-3,3.65213E-2,3.5779934E-2,6.1176825E-2,2.2440923E-2,-5.3343367E-2,-3.2472964E-2,-3.1598571E-3,1.4054558E-2,-7.1008387E-3,7.3226965E-3,-4.9684387E-2,1.2815339E-2,5.665637E-2,7.7226334E-3,4.2757194E-2,6.903079E-2,1.8525027E-2,-9.020342E-3,2.5235785E-2,2.8121755E-2,5.0859194E-2,-2.1232573E-2,1.0902894E-2,1.0896502E-2,6.723609E-2,2.1106886E-2,4.2849626E-2,-2.354262E-2,-4.1490506E-2,-1.910605E-2,1.5558563E-3,3.835433E-3,-1.4490123E-2,2.4731547E-2,-2.6895371E-3,1.6027706E-3,-2.0999065E-2,4.421474E-2,-8.0625415E-3,-4.5778286E-2,-3.7897502E-3,-7.4451655E-2,-5.3617056E-2,-2.8571853E-2,1.5424547E-2,1.2538637E-2,-4.486462E-2,-1.4469934E-2,1.2748358E-2],"categories":[],"categories_nodes":[],"categories_segments":[],"categories_sizes":[],"default_left":[0,0,0,0,0,0,0,0,0,0,0,0,0,0,0,0,0,0,0,0,0,0,0,0,0,0,0,0,0,0,0,0,0,0,0,0,0,0,0,0,0,0,0,0,0,0,0,0,0,0,0,0,0,0,0,0,0,0,0,0,0,0,0,0,0,0,0,0,0,0,0,0,0,0,0,0,0,0,0,0,0,0,0,0,0,0,0,0,0,0,0,0,0,0,0,0,0,0,0,0,0,0,0,0,0,0,0,0,0,0,0,0,0,0,0,0,0,0,0,0,0,0,0],"id":12,"left_children":[1,3,5,7,9,11,13,15,17,19,21,23,25,27,29,31,33,35,37,39,41,43,45,47,49,51,53,55,57,59,61,63,65,67,69,71,73,75,77,79,81,83,85,87,89,91,93,95,97,99,-1,101,103,105,107,109,111,113,115,117,119,-1,121,-1,-1,-1,-1,-1,-1,-1,-1,-1,-1,-1,-1,-1,-1,-1,-1,-1,-1,-1,-1,-1,-1,-1,-1,-1,-1,-1,-1,-1,-1,-1,-1,-1,-1,-1,-1,-1,-1,-1,-1,-1,-1,-1,-1,-1,-1,-1,-1,-1,-1,-1,-1,-1,-1,-1,-1,-1,-1,-1,-1],"loss_changes":[1.5124858E2,1.648613E1,2.2468292E1,1.1350418E1,7.192851E0,1.1045494E1,6.8934402E0,8.253738E0,1.9149551E0,2.817717E0,5.0217266E0,1.9313972E0,1.0483379E1,3.463787E0,3.1247597E0,1.3788586E0,8.585281E0,3.2206936E0,1.9800129E0,1.7198848E0,2.7334902E0,2.7395477E0,3.261933E0,9.693866E-1,3.0608797E-1,6.387474E0,5.0406055E0,4.9765837E-1,1.742073E0,2.6114159E0,9.9795413E-1,8.760589E-2,5.087662E-1,5.1954126E0,4.118187E0,2.4088326E0,1.6203187E0,4.9138832E-1,8.82862E-1,2.460903E0,2.9671028E0,3.0211487E0,2.398118E0,2.1597366E0,2.1699238E-1,2.6537492E0,5.350113E-2,6.9389236E-1,3.9863467E-1,1.454444E-1,0E0,3.643242E0,2.9990492E0,4.140276E0,2.2535024E0,1.3848248E-1,4.1281074E-1,1.1430817E0,6.7416E-1,3.8144035E0,1.2369537E0,0E0,6.9157636E-1,0E0,0E0,0E0,0E0,0E0,0E0,0E0,0E0,0E0,0E0,0E0,0E0,0E0,0E0,0E0,0E0,0E0,0E0,0E0,0E0,0E0,0E0,0E0,0E0,0E0,0E0,0E0,0E0,0E0,0E0,0E0,0E0,0E0,0E0,0E0,0E0,0E0,0E0,0E0,0E0,0E0,0E0,0E0,0E0,0E0,0E0,0E0,0E0,0E0,0E0,0E0,0E0,0E0,0E0,0E0,0E0,0E0,0E0,0E0,0E0],"parents":[2147483647,0,0,1,1,2,2,3,3,4,4,5,5,6,6,7,7,8,8,9,9,10,10,11,11,12,12,13,13,14,14,15,15,16,16,17,17,18,18,19,19,20,20,21,21,22,22,23,23,24,24,25,25,26,26,27,27,28,28,29,29,30,30,31,31,32,32,33,33,34,34,35,35,36,36,37,37,38,38,39,39,40,40,41,41,42,42,43,43,44,44,45,45,46,46,47,47,48,48,49,49,51,51,52,52,53,53,54,54,55,55,56,56,57,57,58,58,59,59,60,60,62,62],"right_children":[2,4,6,8,10,12,14,16,18,20,22,24,26,28,30,32,34,36,38,40,42,44,46,48,50,52,54,56,58,60,62,64,66,68,70,72,74,76,78,80,82,84,86,88,90,92,94,96,98,100,-1,102,104,106,108,110,112,114,116,118,120,-1,122,-1,-1,-1,-1,-1,-1,-1,-1,-1,-1,-1,-1,-1,-1,-1,-1,-1,-1,-1,-1,-1,-1,-1,-1,-1,-1,-1,-1,-1,-1,-1,-1,-1,-1,-1,-1,-1,-1,-1,-1,-1,-1,-1,-1,-1,-1,-1,-1,-1,-1,-1,-1,-1,-1,-1,-1,-1,-1,-1,-1],"split_conditions":[4E-1,9.444E-1,7.5E-1,3.889E-1,3.571E-1,4E-1,2.143E-1,4.167E-1,5.8E-1,7.778E-1,8E-2,3.889E-1,5.3E-1,3E-1,6.667E-1,1.9E-1,6.2E-1,2.429E-1,9.7E-1,3.1E-1,2.5E-1,3.2E-1,5.714E-1,6.6E-1,7E-1,3.889E-1,4.286E-1,8.9E-1,9.167E-1,7.778E-1,1.25E-1,1.875E-1,3.7E-1,3.333E-1,5.3E-1,1.7E-1,7.5E-1,3.7E-1,3.111E-1,5.5E-1,5.3E-1,1.143E-1,7.6E-1,5.556E-1,7.8E-1,8.1E-1,8.333E-1,3.5E-1,1.429E-1,6.7E-1,6.704363E-2,8.889E-1,7.778E-1,4.8E-1,8.125E-1,4E-1,9.5E-1,6.8E-1,5.556E-1,5.2E-1,2.1E-1,4.2011563E-2,7.4E-1,2.078568E-2,-4.8813606E-3,6.9569096E-2,1.0010156E-2,1.6058853E-2,-4.840582E-3,5.1367432E-2,2.5055528E-2,1.9971011E-2,5.2215904E-2,6.5130466E-3,3.65213E-2,3.5779934E-2,6.1176825E-2,2.2440923E-2,-5.3343367E-2,-3.2472964E-2,-3.1598571E-3,1.4054558E-2,-7.1008387E-3,7.3226965E-3,-4.9684387E-2,1.2815339E-2,5.665637E-2,7.7226334E-3,4.2757194E-2,6.903079E-2,1.8525027E-2,-9.020342E-3,2.5235785E-2,2.8121755E-2,5.0859194E-2,-2.1232573E-2,1.0902894E-2,1.0896502E-2,6.723609E-2,2.1106886E-2,4.2849626E-2,-2.354262E-2,-4.1490506E-2,-1.910605E-2,1.5558563E-3,3.835433E-3,-1.4490123E-2,2.4731547E-2,-2.6895371E-3,1.6027706E-3,-2.0999065E-2,4.421474E-2,-8.0625415E-3,-4.5778286E-2,-3.7897502E-3,-7.4451655E-2,-5.3617056E-2,-2.8571853E-2,1.5424547E-2,1.2538637E-2,-4.486462E-2,-1.4469934E-2,1.2748358E-2],"split_indices":[2,3,2,4,4,3,4,3,0,1,2,4,0,3,4,5,0,2,5,0,0,0,4,0,4,4,4,5,3,3,3,4,2,2,5,0,5,5,2,5,5,2,5,1,0,5,4,5,4,5,0,3,1,5,3,1,5,0,1,0,5,0,5,0,0,0,0,0,0,0,0,0,0,0,0,0,0,0,0,0,0,0,0,0,0,0,0,0,0,0,0,0,0,0,0,0,0,0,0,0,0,0,0,0,0,0,0,0,0,0,0,0,0,0,0,0,0,0,0,0,0,0,0],"split_type":[0,0,0,0,0,0,0,0,0,0,0,0,0,0,0,0,0,0,0,0,0,0,0,0,0,0,0,0,0,0,0,0,0,0,0,0,0,0,0,0,0,0,0,0,0,0,0,0,0,0,0,0,0,0,0,0,0,0,0,0,0,0,0,0,0,0,0,0,0,0,0,0,0,0,0,0,0,0,0,0,0,0,0,0,0,0,0,0,0,0,0,0,0,0,0,0,0,0,0,0,0,0,0,0,0,0,0,0,0,0,0,0,0,0,0,0,0,0,0,0,0,0,0],"sum_hessian":[4.568225E3,2.329102E3,2.239123E3,1.4787686E3,8.503336E2,1.7060369E3,5.330861E2,1.1762639E3,3.0250464E2,6.277547E2,2.2257892E2,9.516816E1,1.6108687E3,2.494609E2,2.8362524E2,4.757072E1,1.1286931E3,2.124238E2,9.008086E1,4.0911325E2,2.1864146E2,9.865377E1,1.2392515E2,7.003618E1,2.513198E1,8.264578E2,7.844109E2,1.8940926E1,2.3051997E2,2.3671231E2,4.6912937E1,6.9398856E0,4.0630833E1,7.8391547E2,3.4477768E2,1.3794772E2,7.447607E1,8.5607185E1,4.4736667E0,1.2596294E2,2.8315033E2,1.6561516E2,5.302631E1,7.253764E1,2.611613E1,1.0454822E2,1.9376934E1,6.4453026E1,5.5831504E0,2.0211515E1,4.920465E0,5.360021E2,2.9045572E2,6.649407E2,1.19470215E2,1.4411928E1,4.528998E0,1.2976747E2,1.0075252E2,1.3790958E2,9.8802734E1,3.6683354E0,4.32446E1,5.694868E0,1.2450174E0,3.8762775E1,1.8680577E0,6.382658E2,1.456497E2,7.777319E1,2.670045E2,3.1776796E1,1.0617093E2,4.474723E1,2.9728834E1,1.435662E1,7.125057E1,2.906486E0,1.5671806E0,4.291771E1,8.304523E1,1.0385344E2,1.7929688E2,1.5673105E2,8.884106E0,3.323987E1,1.978644E1,3.0807531E1,4.1730114E1,2.4322237E1,1.7938927E0,7.297247E1,3.1575743E1,6.292491E0,1.3084442E1,6.651233E0,5.7801792E1,2.4615846E0,3.1215658E0,8.999119E0,1.1212397E1,3.6845178E2,1.6755032E2,1.7277287E2,1.17682846E2,1.6282556E2,5.0211508E2,6.466379E1,5.480642E1,3.3202293E0,1.1091699E1,2.0283947E0,2.5006032E0,1.22725655E2,7.041814E0,3.87963E1,6.1956215E1,1.1483015E2,2.307943E1,3.50354E0,9.5299194E1,3.0938711E1,1.2305889E1],"tree_param":{"num_deleted":"0","num_feature":"6","num_nodes":"123","size_leaf_vector":"1"}},{"base_weights":[7.640347E-10,1.5279797E-1,-1.9961792E-1,6.2414634E-1,1.384728E-1,-1.3729951E-1,-3.3995432E-1,3.7725943E-1,6.9545254E-2,7.144851E-2,2.1688192E-1,1.335569E-1,-1.6795768E-1,-3.8652787E-1,4.3270577E-2,1.7158234E-1,4.6287432E-1,5.679177E-2,4.1851142E-1,1.9393466E-1,5.218155E-1,1.0110055E-1,5.253231E-1,-9.610811E-2,-3.10623E-1,-4.501498E-1,-2.3857728E-1,2.1505092E-1,-9.165495E-2,2.7131772E-1,-5.667527E-3,5.1824373E-1,1.4014895E-3,1.7986627E-1,1.9644689E-2,5.351769E-1,1.6973239E-1,1.6965087E-1,4.8277164E-1,3.276804E-1,5.7199824E-1,7.967428E-2,5.2534074E-1,8.452577E-3,5.7265395E-1,-1.5348555E-1,1.1091362E-2,-3.9615214E-1,-1.7835861E-1,-5.4716706E-1,-3.8305056E-1,-3.153793E-1,1.3066659E-2,5.985353E-2,1.06732816E-1,3.9798927E-2,-1.357308E-1,-2.2090755E-3,4.1907016E-2,3.268348E-2,6.459793E-2,5.8961804E-3,3.1914104E-2,6.8096416E-3,-7.252981E-3,3.2953117E-2,6.2120177E-2,3.61708E-2,-7.3297867E-3,2.6124218E-2,8.34605E-3,6.366664E-2,3.4432035E-2,1.3574193E-2,4.146449E-2,6.40754E-2,4.543269E-2,1.8989552E-2,3.5599303E-3,6.099794E-2,1.1901977E-2,2.3170287E-2,6.844954E-2,-2.0487249E-2,1.3319369E-3,-7.0777856E-4,4.0847726E-2,-4.222254E-2,-5.671335E-3,-3.1892054E-2,-1.1450032E-2,-6.67357E-2,-4.2907596E-2,-2.8688176E-2,-5.0866645E-2,-2.6288575E-2,-5.5890758E-2,1.0627636E-2,-6.4222395E-2,-3.177312E-2,2.0792725E-2,-2.4177097E-2,1.1647093E-2],"categories":[],"categories_nodes":[],"categories_segments":[],"categories_sizes":[],"default_left":[0,0,0,0,0,0,0,0,0,0,0,0,0,0,0,0,0,0,0,0,0,0,0,0,0,0,0,0,0,0,0,0,0,0,0,0,0,0,0,0,0,0,0,0,0,0,0,0,0,0,0,0,0,0,0,0,0,0,0,0,0,0,0,0,0,0,0,0,0,0,0,0,0,0,0,0,0,0,0,0,0,0,0,0,0,0,0,0,0,0,0,0,0,0,0,0,0,0,0,0,0,0,0],"id":13,"left_children":[1,3,5,7,9,11,13,15,-1,17,19,21,23,25,27,29,31,33,35,37,39,41,43,45,47,49,51,53,55,57,-1,59,-1,61,63,65,67,69,71,73,75,77,79,-1,81,83,85,87,89,91,93,95,97,-1,99,-1,101,-1,-1,-1,-1,-1,-1,-1,-1,-1,-1,-1,-1,-1,-1,-1,-1,-1,-1,-1,-1,-1,-1,-1,-1,-1,-1,-1,-1,-1,-1,-1,-1,-1,-1,-1,-1,-1,-1,-1,-1,-1,-1,-1,-1,-1,-1],"loss_changes":[1.3741359E2,1.71441E1,1.7036217E1,1.0576763E0,1.30065155E1,1.1268782E1,1.0725426E1,2.549591E-1,0E0,6.779416E0,7.8860397E0,1.704992E0,1.2445641E1,4.9292145E0,1.5474607E0,1.7860964E-1,3.1132627E-1,5.8684764E0,1.477459E0,7.3751945E0,5.85083E-1,1.1300704E0,1.6732597E-1,4.98924E0,4.53574E0,2.2188492E0,3.1549606E0,1.1530262E0,8.65893E-1,2.3307037E-1,0E0,6.719422E-2,0E0,4.9934425E0,4.416121E0,4.3781853E-1,8.996584E-1,7.7323875E0,1.5260544E0,2.5465798E-1,2.0781136E-1,5.951793E-1,1.3441753E-1,0E0,1.9086075E-1,4.530592E0,2.0507596E0,2.1573677E0,1.415163E0,1.8452988E0,2.5583687E0,1.4503584E0,2.4553745E0,0E0,1.0995549E0,0E0,9.7108257E-1,0E0,0E0,0E0,0E0,0E0,0E0,0E0,0E0,0E0,0E0,0E0,0E0,0E0,0E0,0E0,0E0,0E0,0E0,0E0,0E0,0E0,0E0,0E0,0E0,0E0,0E0,0E0,0E0,0E0,0E0,0E0,0E0,0E0,0E0,0E0,0E0,0E0,0E0,0E0,0E0,0E0,0E0,0E0,0E0,0E0,0E0],"parents":[2147483647,0,0,1,1,2,2,3,3,4,4,5,5,6,6,7,7,9,9,10,10,11,11,12,12,13,13,14,14,15,15,16,16,17,17,18,18,19,19,20,20,21,21,22,22,23,23,24,24,25,25,26,26,27,27,28,28,29,29,31,31,33,33,34,34,35,35,36,36,37,37,38,38,39,39,40,40,41,41,42,42,44,44,45,45,46,46,47,47,48,48,49,49,50,50,51,51,52,52,54,54,56,56],"right_children":[2,4,6,8,10,12,14,16,-1,18,20,22,24,26,28,30,32,34,36,38,40,42,44,46,48,50,52,54,56,58,-1,60,-1,62,64,66,68,70,72,74,76,78,80,-1,82,84,86,88,90,92,94,96,98,-1,100,-1,102,-1,-1,-1,-1,-1,-1,-1,-1,-1,-1,-1,-1,-1,-1,-1,-1,-1,-1,-1,-1,-1,-1,-1,-1,-1,-1,-1,-1,-1,-1,-1,-1,-1,-1,-1,-1,-1,-1,-1,-1,-1,-1,-1,-1,-1,-1],"split_conditions":[4.875E-1,4E-1,1E0,3.8E-1,2.143E-1,4.167E-1,6.667E-1,2.2E-1,6.9545254E-2,8.9E-1,6.667E-1,7E-1,6.571E-1,4.3E-1,5.111E-1,2E-1,3.375E-1,6.429E-1,8.4E-1,8.2E-1,4.3E-1,9.9E-1,1.6E-1,3E-1,2.778E-1,5.556E-1,3.889E-1,1.7E-1,1.1E-1,1.9E-1,-5.667527E-3,1.9E-1,1.4014895E-3,7.5E-1,2.857E-1,6.875E-1,7.857E-1,2.222E-1,6.5E-1,8.333E-1,3.7E-1,6.1E-1,3.4E-1,8.452577E-3,3.8E-1,6.5E-1,8.333E-1,6.9E-1,3.5E-1,7E-1,6.833E-1,8.8E-1,7.2E-1,5.985353E-2,2.1E-1,3.9798927E-2,3.5E-1,-2.2090755E-3,4.1907016E-2,3.268348E-2,6.459793E-2,5.8961804E-3,3.1914104E-2,6.8096416E-3,-7.252981E-3,3.2953117E-2,6.2120177E-2,3.61708E-2,-7.3297867E-3,2.6124218E-2,8.34605E-3,6.366664E-2,3.4432035E-2,1.3574193E-2,4.146449E-2,6.40754E-2,4.543269E-2,1.8989552E-2,3.5599303E-3,6.099794E-2,1.1901977E-2,2.3170287E-2,6.844954E-2,-2.0487249E-2,1.3319369E-3,-7.0777856E-4,4.0847726E-2,-4.222254E-2,-5.671335E-3,-3.1892054E-2,-1.1450032E-2,-6.67357E-2,-4.2907596E-2,-2.8688176E-2,-5.0866645E-2,-2.6288575E-2,-5.5890758E-2,1.0627636E-2,-6.4222395E-2,-3.177312E-2,2.0792725E-2,-2.4177097E-2,1.1647093E-2],"split_indices":[2,3,3,5,4,3,4,0,0,0,4,4,2,0,2,0,2,3,5,0,5,5,0,4,4,1,4,0,0,5,0,5,0,1,2,3,3,2,5,4,0,5,0,0,5,0,4,0,0,5,2,5,2,0,0,0,0,0,0,0,0,0,0,0,0,0,0,0,0,0,0,0,0,0,0,0,0,0,0,0,0,0,0,0,0,0,0,0,0,0,0,0,0,0,0,0,0,0,0,0,0,0,0],"split_type":[0,0,0,0,0,0,0,0,0,0,0,0,0,0,0,0,0,0,0,0,0,0,0,0,0,0,0,0,0,0,0,0,0,0,0,0,0,0,0,0,0,0,0,0,0,0,0,0,0,0,0,0,0,0,0,0,0,0,0,0,0,0,0,0,0,0,0,0,0,0,0,0,0,0,0,0,0,0,0,0,0,0,0,0,0,0,0,0,0,0,0,0,0,0,0,0,0,0,0,0,0,0,0],"sum_hessian":[4.503184E3,2.5508586E3,1.9523256E3,7.398315E1,2.4768755E3,1.3533356E3,5.9899E2,1.7989138E1,5.599401E1,1.3364159E3,1.1404597E3,1.3726665E2,1.216069E3,5.3407495E2,6.491508E1,6.1702194E0,1.1818918E1,1.2833812E3,5.303458E1,1.0621643E3,7.829537E1,1.2792648E2,9.340166E0,8.098722E2,4.0619675E2,3.7204504E2,1.6202989E2,2.8296085E1,3.661899E1,4.162709E0,2.0075102E0,1.0383477E1,1.4354407E0,2.9665884E2,9.867224E2,3.5319984E1,1.7714598E1,9.8125336E2,8.0910934E1,1.762844E1,6.0666935E1,1.2290687E2,5.0196104E0,1.1757872E0,8.164379E0,5.2724036E2,2.8263187E2,2.4546863E2,1.6072813E2,1.4918594E2,2.228591E2,1.23947655E2,3.8082237E1,5.2353563E0,2.306073E1,2.360975E0,3.4258015E1,1.6790066E0,2.4837027E0,5.58026E0,4.803218E0,1.5956435E2,1.3709451E2,6.469257E2,3.3979672E2,1.1841962E1,2.3478022E1,9.624022E0,8.090577E0,4.7473697E2,5.0651642E2,3.6614174E1,4.429676E1,6.2952156E0,1.1333225E1,3.5486656E1,2.5180277E1,3.4163494E1,8.874338E1,3.7394412E0,1.2801694E0,2.775355E0,5.3890243E0,4.0289413E2,1.24346214E2,2.712137E2,1.1418156E1,2.27732E2,1.7736628E1,4.896172E1,1.1176641E2,7.163081E1,7.755512E1,1.2808432E2,9.477478E1,1.03678764E2,2.0268896E1,3.4073395E1,4.0088415E0,4.027483E0,1.9033245E1,2.4146706E1,1.011131E1],"tree_param":{"num_deleted":"0","num_feature":"6","num_nodes":"103","size_leaf_vector":"1"}},{"base_weights":[8.0086715E-10,1.7172138E-1,-1.8029669E-1,2.8808895E-1,1.1227861E-1,-1.2384096E-1,-3.2047048E-1,6.226482E-1,2.5704843E-1,3.5155613E-2,2.1287653E-1,1.3647069E-1,-1.4980303E-1,-4.6797365E-1,-2.2166377E-1,1.9581795E-1,6.718366E-1,2.3278713E-1,5.5384076E-1,1.3987009E-2,4.519134E-1,2.7285925E-1,9.988805E-2,-9.498772E-3,2.5290766E-1,-9.529089E-2,-2.8700137E-1,-3.7529105E-1,-5.8852106E-1,-2.708331E-1,1.4077162E-2,2.399587E-1,-2.6982864E-3,6.864082E-2,1.4925714E-2,3.959536E-1,1.7986225E-1,4.04503E-1,6.8082094E-1,-5.5833522E-2,9.5111124E-2,5.2093273E-1,2.1228229E-1,2.134293E-1,4.413522E-1,2.8046414E-1,2.052343E-2,2.3664339E-2,-2.521429E-1,2.1004541E-1,4.9304718E-1,-1.3675854E-1,3.231698E-2,-3.0354047E-1,1.9957188E-1,-4.1541547E-1,-2.1721768E-1,-3.0939552E-1,-6.3226783E-1,-2.8663838E-1,1.6032337E-1,1.3697904E-1,-8.067208E-2,-3.871971E-4,3.188325E-2,1.857319E-2,5.0212163E-2,1.1528723E-2,2.9747466E-2,2.0917041E-2,5.857561E-2,7.167787E-2,-9.6201375E-3,8.279094E-3,-9.008638E-3,2.1604022E-2,1.5586617E-3,5.5464394E-2,1.0868465E-2,-1.3506089E-2,3.476999E-2,4.6629097E-2,1.6350582E-2,3.7649628E-2,6.0585864E-2,-3.8364937E-3,3.4494113E-2,2.5659818E-2,-4.5119496E-3,-2.242498E-3,4.755848E-2,-4.845877E-3,-4.0865403E-2,1.6637236E-2,5.342406E-2,6.405171E-2,2.9600983E-2,-1.9698825E-2,-3.501007E-3,1.8788598E-2,-8.382215E-3,-2.3139924E-2,-4.584248E-2,1.0390092E-2,4.3086093E-2,1.1300701E-2,-4.2748246E-2,3.233565E-2,-3.1089393E-2,-4.934114E-2,-2.251824E-3,-7.377977E-2,-5.3981062E-2,-3.078923E-2,-3.2840713E-3,3.62483E-2,-1.0519258E-2,-1.2847629E-2,2.3048222E-2,-1.5858522E-2,6.8855733E-3],"categories":[],"categories_nodes":[],"categories_segments":[],"categories_sizes":[],"default_left":[0,0,0,0,0,0,0,0,0,0,0,0,0,0,0,0,0,0,0,0,0,0,0,0,0,0,0,0,0,0,0,0,0,0,0,0,0,0,0,0,0,0,0,0,0,0,0,0,0,0,0,0,0,0,0,0,0,0,0,0,0,0,0,0,0,0,0,0,0,0,0,0,0,0,0,0,0,0,0,0,0,0,0,0,0,0,0,0,0,0,0,0,0,0,0,0,0,0,0,0,0,0,0,0,0,0,0,0,0,0,0,0,0,0,0,0,0,0,0,0,0],"id":14,"left_children":[1,3,5,7,9,11,13,15,17,19,21,23,25,27,29,31,33,35,37,39,41,43,45,47,49,51,53,55,57,59,61,63,-1,-1,-1,65,67,69,71,73,75,77,79,81,83,85,87,89,91,93,95,97,99,101,103,105,107,109,111,113,115,117,119,-1,-1,-1,-1,-1,-1,-1,-1,-1,-1,-1,-1,-1,-1,-1,-1,-1,-1,-1,-1,-1,-1,-1,-1,-1,-1,-1,-1,-1,-1,-1,-1,-1,-1,-1,-1,-1,-1,-1,-1,-1,-1,-1,-1,-1,-1,-1,-1,-1,-1,-1,-1,-1,-1,-1,-1,-1,-1],"loss_changes":[1.3740512E2,1.5690979E1,1.709298E1,7.8145523E0,1.1677998E1,1.0461866E1,8.946442E0,1.2225094E0,4.943226E0,7.5256724E0,4.4011593E0,2.392724E0,1.0483267E1,2.5521927E0,4.3362427E0,8.589658E-2,3.3477974E-1,5.566986E0,7.2026443E-1,4.6131887E0,5.7144356E-1,4.1740227E0,3.264187E0,5.158856E-1,7.020583E-1,5.3343534E0,3.2724113E0,8.172455E-1,1.1002235E0,2.1537838E0,7.732629E-1,1.328083E-1,0E0,0E0,0E0,3.4571342E0,3.723837E0,8.189759E-1,8.2090473E-1,2.0864944E0,3.6189935E0,3.7509727E-1,5.600847E-1,3.925991E0,9.477024E-1,1.4436936E0,2.4845698E0,1.1908944E0,2.2583261E-1,8.761275E-1,1.3328695E-1,4.653035E0,4.493758E0,4.211231E0,2.5890195E-1,7.689533E-1,1.6734499E0,8.5132325E-1,4.8752594E-1,1.6013165E0,6.596571E-1,7.460639E-1,4.4884965E-1,0E0,0E0,0E0,0E0,0E0,0E0,0E0,0E0,0E0,0E0,0E0,0E0,0E0,0E0,0E0,0E0,0E0,0E0,0E0,0E0,0E0,0E0,0E0,0E0,0E0,0E0,0E0,0E0,0E0,0E0,0E0,0E0,0E0,0E0,0E0,0E0,0E0,0E0,0E0,0E0,0E0,0E0,0E0,0E0,0E0,0E0,0E0,0E0,0E0,0E0,0E0,0E0,0E0,0E0,0E0,0E0,0E0,0E0],"parents":[2147483647,0,0,1,1,2,2,3,3,4,4,5,5,6,6,7,7,8,8,9,9,10,10,11,11,12,12,13,13,14,14,15,15,16,16,17,17,18,18,19,19,20,20,21,21,22,22,23,23,24,24,25,25,26,26,27,27,28,28,29,29,30,30,31,31,35,35,36,36,37,37,38,38,39,39,40,40,41,41,42,42,43,43,44,44,45,45,46,46,47,47,48,48,49,49,50,50,51,51,52,52,53,53,54,54,55,55,56,56,57,57,58,58,59,59,60,60,61,61,62,62],"right_children":[2,4,6,8,10,12,14,16,18,20,22,24,26,28,30,32,34,36,38,40,42,44,46,48,50,52,54,56,58,60,62,64,-1,-1,-1,66,68,70,72,74,76,78,80,82,84,86,88,90,92,94,96,98,100,102,104,106,108,110,112,114,116,118,120,-1,-1,-1,-1,-1,-1,-1,-1,-1,-1,-1,-1,-1,-1,-1,-1,-1,-1,-1,-1,-1,-1,-1,-1,-1,-1,-1,-1,-1,-1,-1,-1,-1,-1,-1,-1,-1,-1,-1,-1,-1,-1,-1,-1,-1,-1,-1,-1,-1,-1,-1,-1,-1,-1,-1,-1,-1,-1],"split_conditions":[4E-1,7.5E-1,1E0,4.167E-1,4.6E-1,4E-1,1.875E-1,1.9E-1,7.1E-1,5.714E-1,7.7E-1,7.14E-2,6.571E-1,6.4E-1,5.714E-1,1.875E-1,3.7E-1,8E-2,6E-1,7E-1,2.125E-1,6.8E-1,8.125E-1,9.5E-1,5.714E-1,6.7E-1,7E-1,5.8E-1,4.1E-1,7.7E-1,5.111E-1,2E-1,-2.6982864E-3,6.864082E-2,1.4925714E-2,5.6E-1,2.778E-1,6.111E-1,5E-1,1.8E-1,6E-2,4.3E-1,2.9E-1,3.9E-1,7E-1,4.8E-1,1E-1,8.9E-1,2.8E-1,6.6E-1,6.4E-1,1E0,6.3E-1,1E0,7.5E-1,2.1E-1,6E-1,3.9E-1,